tree
version=v2
num_class=1
num_tree_per_iteration=1
label_index=0
max_feature_idx=119
objective=binary sigmoid:1
feature_names=Column_0 Column_1 Column_2 Column_3 Column_4 Column_5 Column_6 Column_7 Column_8 Column_9 Column_10 Column_11 Column_12 Column_13 Column_14 Column_15 Column_16 Column_17 Column_18 Column_19 Column_20 Column_21 Column_22 Column_23 Column_24 Column_25 Column_26 Column_27 Column_28 Column_29 Column_30 Column_31 Column_32 Column_33 Column_34 Column_35 Column_36 Column_37 Column_38 Column_39 Column_40 Column_41 Column_42 Column_43 Column_44 Column_45 Column_46 Column_47 Column_48 Column_49 Column_50 Column_51 Column_52 Column_53 Column_54 Column_55 Column_56 Column_57 Column_58 Column_59 Column_60 Column_61 Column_62 Column_63 Column_64 Column_65 Column_66 Column_67 Column_68 Column_69 Column_70 Column_71 Column_72 Column_73 Column_74 Column_75 Column_76 Column_77 Column_78 Column_79 Column_80 Column_81 Column_82 Column_83 Column_84 Column_85 Column_86 Column_87 Column_88 Column_89 Column_90 Column_91 Column_92 Column_93 Column_94 Column_95 Column_96 Column_97 Column_98 Column_99 Column_100 Column_101 Column_102 Column_103 Column_104 Column_105 Column_106 Column_107 Column_108 Column_109 Column_110 Column_111 Column_112 Column_113 Column_114 Column_115 Column_116 Column_117 Column_118 Column_119
feature_infos=[17:47] [0:1] [0:238] [0:53] [0:78] [0:79] [0:900] [0:320] [0:1] [0:1] [0:1] [0:1] [0:1] [0:1] [0:1] [0:1] [0:1] [0:5] [0:3] [0:11] [0:8] [0:1] [0:1] [0:1] none [0:1] [0:1] [0:1] [0:1] [0:1] [0:1] [0:1] none [0:1] [0:1] [0:1] [0:1] [0:1] [0:1] [0:1] [0:1] [0:1] [0:1] [0:1] none [0:1] [0:1] [0:1] none [0:1] [0:1] none [0:1] none none none none none none none none none [0:1] none [0:1] [0:1] none [0:1] none [0:1] [0:1] [0:1] none [0:1] [0:1] none none none none [0:1] [0:1] [0:1] none none none none none none none none [0:1] [0:1] none none none [0:1] [0:1] [0:1] [0:1] [0:1] [0:1] [0:1] [0:1] none [0:1] [0:1] none [0:1] none [0:1] [0:1] none none none [0:1] [0:1] none [0:1] [0:1] [0:1]
tree_sizes=572 588 583 581 587 581 581 584 580 589 587 579 591 583 586 580 584 595 590 585 593 593 582 592 573 574 581 592 587 594 589 593 592 589 584 583 595 582 581 581 587 590 582 586 587 588 579 579 589 576 579 589 575 596 587 588 589 584 588 584 592 592 595 595 581 596 564 585 583 590 589 594 593 586 591 596 581 569 559 584 594 567 585 584 593 583 590 584 577 585 583 587 588 583 591 585 597 590 595 587 574 589 589 577 586 591 591 602 588 585 562 594 593 601 593 590 583 595 589 591 581 592 582 580 589 565 585 591 599 600 583 604 591 598 588 588 594 587 590 585 594 592 595 583 591 596 548 586 587 592 589 590 586 600 592 596 595 587 582 588 581 585 596 579 595 596 587 586 596 580 598 595 587 573 588 584 592 588 564 589 588 574 597 584 585 601 599 588 597 599 593 592 582 599 595 596 585 594 595 598 581 593 575 572 598 587 602 586 590 587 594 598 605 585 560 595 589 594 582 594 586 582 587 568 590 597 569 593 581 603 583 590 607 592 596 593 582 585 600 585 588 591 587 598 583 602 600 600 589 590 599 573 597 592 601 595 592 590 565 587 584 595 597 598 595 594 600 595 582 591 585 595 593 594 588 597 567 591 592 602 583 579 591 585 585 593 592 594 594 585 598 600 602 601 590 576 586 590 600 588 589 582 593 592 587 599 588 588 579 598 596 587 590 594 596 601 578 581 586 600 586 601 595 586 592 604 590 588 585 601 588 581 589 593 592 596 602 594 562 572 580 597 575 588 583 592 585 556 596 594 593 588 594 596 602 599 599 578 597 570 604 603 601 606 583 600 594 596 592 578 595 598 574 585 592 593 601 569 589 602 584 594 602 601 572 585 596 589 589 597 585 595 594 592 598 588 596 585 602 564 584 588 592 603 604 604 605 594 592 594 602 590 600 599 591 598 600 591 587 587 591 588 597 598 597 585 598 584 603 595 588 600 594 596 601 591 590 595 586 599 595 597 605 597 592 590 601 596 584 594 577 589 600 587 596 584 591 589 597 596 594 588 596 601 591 599 608 592 566 596 573 586 597 591 596 591 584 591 594 584 587 590 593 597 589 585 588 600 588 582 594 590 593 595 587 582 598 578 596 594 595 589 596 591 594 582 590 595 605 588 598 585 594 587 591 603 593 598 572 594 561 587 599 597 588 590 597 584 586 589 598 588 595 603 580 592 597 595 597 594 594 595 580 597 597 576 595 590 595 601 594 602 591 598 592 598 594 602 595 597 593 587 601 601 598 578 595 590 600 601 599 597 595 579 580 597 585 588 599 593 599 593 599 596 581 598 602 592 594 592 605 595 592 599 588 595 598 595 598 596 606 594 573 603 597 589 594 588 592 590 602 605 600 601 586 585 607 589 600 598 587 595 597 603 590 598 599 590 589 591 602 595 592 583 598 586 589 594 581 588 600 606 593 584 590 601 589 599 590 590 591 584 579 604 566 588 591 584 593 599 593 586 584 591 594 580 586 594 591 588 598 571 596 587 584 579 594 605 592 604 581 583 599 588 594 597 594 596 606 606 588 594 574 573 589 566 599 585 597 590 603 605 594 605 592 598 601 604 607 594 578 592 556 584 600 596 589 596 593 600 593 585 601 596 587 596 603 586 593 595 595 602 590 599 593 601 589 590 594 563 571 591 600 592 598 590 606 574 581 591 602 598 580 603 583 591 592 583 595 583 607 600 582 587 590 578 592 603 603 584 589 597 591 598 587 599 592 596 590 587 581 593 599 578 597 598 581 563 600 568 591 607 599 585 588 571 598 572 598 590 588 592 600 591 595 595 589 601 600 593 579 595 583 592 605 585 579 600 591 586 597 603 600 597 592 597 588 586 598 595 594 586 587 582 584 596 594 598 595 593 591 595 588 586 595 557 602 599 594 586 586 608 581 608 593 591 590 582 591 569 588 602 600 609 590 602 593 596 593 579 580 584 591 588 594 593 606 597 601 603 595 600 598 603 565 584 596 589 594 599 571 603 596 599 588 593 596 599 595 592 594 591 600 596 607 597 591 596 586 599 595 603 593 587 591 586 575 591 591 577 594 593 593 592 592 603 600 590 603 597 595 593 612 597 589 601 593 594 587 587 593 595 590 599 585 589 570 594 597 587 596 596 596 602 604 595 586 589 593 593 590 592 589 588 592 595 585 562 601 599 577 597 588 584 574 593 577 588 577 607 599 585 604 581 584 589 592 579 587 590 604 592 602 597 592 591 593 595 604 594 589 584 583 599 590 591 593 588 590 598 577 596 586 607 600 603 592 596 593 585 598 593 602 590 596 571 585 605 585 596 606 600 589 596 587 600 602 591 579 601 594 585 608 590 583 560 589 579 575 593 584 594 593 597 607 601 597 594 580 594 587 597 598 604 595 600 594 552 587 599 599 579 599 578 585 594 584 585 588 603 596 593 590 601 601 573 595 588 597 592 601 602 589 599 600 586 607 595 597 604 591 584 594 589 592 587 589 586 584 591 599 589 584 587 587 601 605 595 596 589 591 601 592 604 591 586 589 611 601 601 588 595 593 609 599 599 596 595 600 585 597 599 600 595 593 584 591 603 603 563 603 595 568 581 584 581 577 594 597 609 592 596 574 588 608 599 598 598 586 588 596 587 586 594 581 597 594 593 589 589 592 593 597 600 587 598 591 577 604 599 586 598 597 595 592 594 583 593 597 586 591 594 571 575 590 588 578 598 582 607 583 590 607 596 589 566 596 602 582 591 598 593 598 605 584 601 594 586 581 602 596 599 594 573 597 572 592 592 583 585 598 600 592 603 591 601 592 591 593 564 591 577 598 599 587 591 588 599 589 594 591 587 593 598 593 574 590 588 602 599 604 583 606 593 592 594 598 585 552 601 601 587 596 604 572 589 593 591 576 602 595 585 598 558 595 577 587 594 589 595 571 571 588 595 594 582 599 586 592 600 587 605 584 588 581 588 586 582 590 594 589 607 605 590 598 598 597 605 594 590 596 598 594 562 583 581 586 577 593 608 604 602 585 566 592 581 572 604 600 584 592 581 599 593 589 589 583 595 603 594 595 600 593 596 590 583 586 580 591 563 593 591 586 592 598 587 593 583 591 585 594 611 592 598 602 597 594 583 591 596 604 585 593 559 594 599 592 584 585 595 597 594 591 588 599 595 589 584 582 597 582 568 598 603 605 577 586 591 578 600 603 601 605 597 595 583 586 573 583 593 607 586 600 588 592 599 599 583 590 588 602 584 589 595 588 603 564 583 591 593 588 597 590 593 592 593 594 583 608 612 599 607 583 592 591 603 566 591 594 597 597 580 585 601 590 591 588 591 594 579 580 600 602 564 599 580 599 580 569 572 573 606 593 582 586 586 588 602 583 594 592 600 583 598 594 597 595 590 586 594 585 601 565 601 592 601 589 597 601 595 588 566 577 585 591 603 592 577 598 606 598 586 554 572 581 609 605 586 589 569 590 605 597 598 575 596 599 597 588 587 601 586 598 584 590 590 601 595 574 568 593 584 565 559 598 602 593 590 576 555 585 594 593 603 599 576 603 591 573 591 584 580 589 591 600 601 608 598 601 583 589 574 592 592 571 597 606 593 597 606 602 582 591 584 588 585 576 603 598 597 595 601 600 591 596 563 587 599 567 610 598 599 593 590 565 580 604 599 592 571 567 598 588 593 590 581 601 597 593 582 600 598 604 594 595 586 598 599 585 604 571 576 578 587 556 565 596 596 583 595 592 584 592 600 592 588 578 566 590 568 572 599 595 584 588 591 588 582 592 603 595 601 585 575 597 593 598 576 595 589 598 587 596 603 594 563 585 597 578 600 579 579 574 591 593 594 593 603 584 592 585 592 592 587 594 593 593 577 590 599 577 597 561 559 572 574 569 562 608 581 594 611 599 587 585 601 596 593 591 537 563 590 585 585 573 551 563 601 597 589 581 599 586 598 584 585 597 583 579 594 595 601 591 587 583 594 582 599 542 600 555 588 566 597 579 569 599 568 593 584 580 596 593 589 569 597 587 588 593 605 593 606 592 600 603 595 577 590 580 560 589 597 597 602 595 567 602 581 602 594 592 599 588 583 567 574 597 591 588 596 595 605 588 573 566 579 571 592 593 585 586 596 610 584 597 587 578 575 602 591 571 583 590 580 583 592 590 601 568 579 590 590 602 599 525 598 603 597 579 587 588 587 608 599 588 581 592 572 589 606 588 581 590 586 558 607 565 611 594 595 601 552 583 589 577 578 575 591 588 600 595 591 592 599 573 597 559 597 591 591 571 548 598 573 591 607 562 591 560 586 590 597 600 559 583 595 591 582 575 596 584 594 549 596 573 585 585 588 599 590 586 585 590 597 598 585 590 582 584 571 600 597 591 591 575 590 581 582 598 579 561 596 590 567 601 593 594 567 568 569 577 594 595 602 598 594 560 588 607 537 561 599 595 589 591 535 604 587 591 596 602 587 548 589 583 598 608 600 590 573 596 600 595 592 569 586 584 588 590 592 566 593 587 575 552 594 597 581 589 595 588 592 591 594 595 596 611 584 581 586 599 587 599 573 584 576 583 586 582 587 568 606 590 587 579 589 591 592 599 571 561 591 591 568 600 593 562 579 595 595 604 587 582 567 586 600 584 591 577 588 604 581 586 597 570 591 598 592 586 590 564 593 604 586 603 591 591 599 564 557 594 604 584 556 595 582 571 593 586 586 601 587 575 600 592 591 583 589 603 589 583 564 595 600 595 584 594 593 576 586 582 588 592 582 599 559 588 608 583 564 594 563 598 601 587 599 609 603 589 591 600 587 594 583 613 589 591 579 589 589 582 604 597 571 581 597 582 589 586 570 580 588 576 573 576 598 566 586 588 576 587 581 591 580 574 593 586 590 584 554 570 571 588 594 581 588 594 598 550 584 588 591 557 590 559 595 586 540 595 558 565 566 585 604 594 588 584 600 597 586 584 595 596 576 596 586 596 587 583 600 594 599 575 595 571 563 595 599 585 591 598 588 579 573 581 585 591 589 572 592 587 579 589 583 567 603 582 602 573 588 572 601 565 574 585 593 595 580 593 568 560 583 578 564 588 595 587 588 581 602 567 564 584 587 569 570 572 580 596 577 588 595 587 591 585 591 601 578 587 561 580 604 594 580 580 590 559 562 574 564 562 593 590 579 603 589 567 569 592 582 587 588 601 598 595 590 603 592 596 590 590 585 597 603 581 584 596 602 596 591 589 598 562 587 603 591 550 593 594 588 595 568 583 590 597 602 599 600 557 584 599 599 592 578 587 593 582 558 588 593 540 598 602 594 599 577 605 567 582 591 584 582 567 573 568 577 591 573 563 604 558 554 593 591 590 578 589 580 592 591 593 607 572 589 594 569 566 582 578 599 580 553 598 565 589 583 579 576 576 572 581 580 598 584 568 595 594 608 585 585 582 571 587 565 579 563 601 593 587 583 588 598 567 572 578 577 588 566 593 592 584 559 586 583 570 578 611 580 597 580 592 590 562 585 580 575 589 542 588 570 582 550 588 583 602 592 589 564 596 586 570 594 590 587 587 581 583 573 597 596 595 594 592 566 601 587 563 599 562 582 553 566 557 599 559 580 580 593 561 589 535 590 590 563 613 591 591 570 571 575 591 589 593 587 569 599 583 532 588 590 565 578 588 580 591 594 583 575 585 589 566 599 591 586 585 557 587 594 599 602 583 595 575 588 594 578 600 588 609 593 574 558 581 597 570 592 597 591 561 598 602 585 583 586 566 589 592 596 589 563 570 580 589 600 600 580 584 581 581 587 596 595 594 582 566 586 586 595 543 593 599 564 594 590 563 558 595 588 587 597 596 594 568 561 600 598 574 591 592 561 586 594 583 595 592 581 588 603 604 584 586 573 592 599 590 598 576 581 568 577 590 592 574 590 567 606 586 565 593 583 583 592 582 584 583 582 594 584 583 591 585 567 593 576 608 597 591 569 551 562 600 592 599 533 536 596 604 588 614 607 606 584 604 607 577 591 598 588 586 586 586 585 586 589 586 584 557 592 586 596 598 606 598 604 589 603 605 563 577 594 584 561 590 582 568 580 593 592 580 594 582 603 593 578 596 596 576 587 581 580 588 563 555 586 587 519 567 600 595 551 583 592 591 547 610 596 583 601 565 590 592 602 603 569 593 590 580 599 573 596 567 577 573 598 584 598 564 599 600 571 574 592 537 603 564 599 586 582 557 582 571 589 535 587 592 569 585 591 591 588 591 585 596 558 596 597 585 548 570 576 571 596 554 596 592 556 580 586 586 562 566 603 611 588 592 582 590 593 580 590 595 538 565 571 589 575 611 582 599 586 534 568 608 576 592 567 604 569 567 592 591 583 560 596 599 565 601 562 585 595 576 584 581 592 571 562 567 573 580 582 554 558 593 583 595 593 587 602 599 566 585 554 559 597 605 580 581 590 596 598 590 586 548 564 601 597 556 601 566 598 599 599 587 603 573 567 537 569 588 568 581 566 587 587 600 564 568 582 588 595 520 603 580 590 596 602 560 574 569 581 596 587 592 572 586 589 568 585 589 558 589 600 590 585 588 589 575 589 595 547 590 592 557 589 572 558 606 579 567 583 596 578 585 593 543 589 602 596 583 590 568 591 556 587 565 590 568 571 585 593 566 586 605 575 588 599 573 584 572 564 590 581 575 587 593 568 601 570 560 552 596 555 543 602 601 570 548 580 606 596 595 570 602 584 602 561 572 581 583 589 580 564 582 585 591 570 600 570 591 574 558 584 570 604 592 587 586 601 552 553 576 597 559 593 592 595 558 594 584 568 570 564 591 564 573 576 597 582 591 603 592 592 583 592 535 597 583 566 559 593 600 594 604 603 590 588 597 592 585 592 584 595 582 578 585 596 585 593 568 584 593 579 567 586 593 563 593 615 584 554 550 573 584 595 594 582 595 592 582 601 601 576 601 589 545 596 550 581 593 587 590 575 565 594 594 588 576 589 585 589 560 589 551 579 605 578 582 563 588 539 587 567 570 595 591 580 583 588 599 592 587 589 584 552 589 566 601 593 578 606 585 550 566 585 574 592 565 593 584 579 602 587 574 578 574 587 579 609 598 584 574 538 581 560 598 590 583 596 592 576 588 590 531 564 580 560 597 578 573 559 581 597 593 594 520 551 588 587 572 595 557 600 593 568 582 586 593 566 595 601 591 578 576 550 581 603 575 567 604 559 566 548 594 607 583 588 591 542 563 568 585 596 562 587 596 537 573 566 559 603 547 557 590 557 598 578 594 590 555 582 581 570 571 568 608 583 562 593 595 591 568 598 583 561 598 597 574 574 589 568 586 569 603 586 563 593 585 601 575 582 600 598 587 602 569 599 587 604 599 558 564 596 591 584 583 593 596 589 592 593 551 588 573 588 590 598 574 580 567 583 538 585 587 581 577 584 593 556 585 585 564 537 601 583 587 554 572 555 574 586 590 563 595 599 583 585 579 566 587 595 593 551 588 566 597 561 579 596 554 572 594 561 577 598 589 597 589 607 596 599 590 528 555 595 563 593 596 546 563 596 586 587 560 570 579 546 560 592 598 563 611 585 571 597 557 556 588 582 594 599 532 582 597 590 564 561 595 576 561 546 604 565 596 552 572 551 583 594 571 588 579 591 589 585 587 560 590 575 594 581 601 588 540 530 593 569 581 592 587 575 592 595 576 593 574 579 579 587 594 595 553 577 589 556 582 568 596 550 589 594 591 593 594 583 593 591 592 549 562 554 577 567 591 591 573 587 602 593 597 582 591 562 568 589 584 555 606 604 550 587 610 584 594 584 570 579 589 592 595 548 531 596 604 547 544 572 563 590 577 604 545 589 589 590 567 559 579 562 599 582 578 559 588 575 576 551 580 580 570 566 590 588 565 581 587 598 596 541 593 598 589 595 575 580 576 591 585 582 574 590 601 608 559 534 594 546 586 588 579 572 572 565 597 587 595 586 572 553 556 585 592 573 564 571 593 561 581 574 593 564 595 593 582 587 596 583 577 573 581 576 572 572 560 587 582 564 563 610 569 585 577 567 538 594 602 573 564 592 582 563 587 554 583 580 590 566 567 587 600 591 585 571 562 578 566 592 600 581 567 582 598 554 567 590 581 587 595 601 582 603 559 600 590 586 572 563 561 575 585 596 574 600 555 587 594 587 588 579 596 594 596 582 540 603 563 575 584 555 594 590 583 594 599 593 567 586 592 573 593 591 552 550 594 574 576 589 562 592 592 594 589 582 531 592 597 581 578 584 579 586 594 591 595 599 588 595 568 601 596 599 559 569 599 561 601 582 574 550 595 584 588 581 580 572 584 577 583 595 593 587 596 585 568 579 596 589 593 589 602 565 605 564 565 595 582 591 593 597 587 587 579 572 580 596 598 550 589 561 593 572 591 556 589 582 555 581 589 587 594 570 587 571 583 570 582 586 558 568 587 594 591 560 566 587 588 574 580 569 581 596 569 586 574 570 598 443 576 565 580 566 592 595 576 576 533 593 592 603 600 587 569 591 569 579 585 581 591 591 568 581 597 587 592 557 546 597 580 587 574 550 589 588 592 585 606 585 598 588 580 544 593 598 585 584 586 585 591 583 579 598 590 576 576 590 561 533 593 589 567 583 505 600 537 582 602 567 592 587 561 563 568 581 577 600 590 549 591 577 571 590 593 578 602 588 569 597 602 574 590 578 590 591 594 577 582 596 594 594 599 572 595 582 596 591 512 594 585 566 566 544 557 566 586 569 590 543 589 599 592 591 592 608 585 568 584 564 577 577 590 583 561 596 566 580 595 579 587 584 586 589 554 565 608 598 564 589 576 584 576 589 560 590 581 590 597 595 578 589 587 587 562 575 590 598 574 592 580 581 582 581 571 583 584 540 588 575 594 565 578 566 567 568 572 586 595 584 551 590 591 586 568 592 599 554 557 583 561 584 591 571 566 589 594 595 585 581 532 591 596 594 580 589 580 594 605 596 582 577 589 585 582 591 589 574 537 548 567 537 593 564 576 589 584 597 583 597 586 587 585 585 591 606 564 573 553 587 587 583 593 594 596 589 590 557 608 588 591 562 585 596 555 551 594 549 588 595 575 538 602 579 600 576 573 565 594 592 589 590 578 584 588 582 593 574 582 569 587 592 586 600 571 579 584 586 580 580 597 600 590 604 585 582 594 594 592 586 587 563 560 569 577 561 555 581 591 583 562 593 582 588 597 598 595 597 597 578 572 594 578 596 604 579 541 572 582 574 599 599 565 572 601 589 562 587 588 582 561 605 583 589 564 593 582 597 585 596 594 569 589 593 592 569 579 546 577 573 570 583 584 583 595 588 591 589 570 595 593 564 588 591 598 591 585 524 576 562 587 584 591 592 572 582 582 586 578 578 562 587 588 587 597 583 564 578 577 589 580 600 579 597 590 590 567 590 570 562 592 564 579 610 564 607 580 591 604 564 526 581 569 588

Tree=0
num_leaves=6
num_cat=0
split_feature=5 3 20 5 6
split_gain=337.667 129.48 53.4121 37.6211 27.1536
threshold=1.5000000000000002 2.5000000000000004 1.0000000180025095e-35 1.0000000180025095e-35 22.500000000000004
decision_type=2 2 2 2 2
left_child=1 -1 -2 4 -3
right_child=2 3 -4 -5 -6
leaf_value=-0.42842363580147674 -0.43241328236474913 -0.42342969736534702 -0.42905346152455248 -0.4270017033804171 -0.42830290327954729
leaf_count=1777 1565 1411 763 569 124
internal_value=0 0.35091 -0.634607 0.694641 0.863067
internal_count=6209 3881 2328 2104 1535
shrinkage=1


Tree=1
num_leaves=6
num_cat=0
split_feature=5 3 20 5 119
split_gain=344.219 107.199 48.9619 42.7303 30.2665
threshold=1.5000000000000002 2.5000000000000004 1.5000000000000002 1.0000000180025095e-35 1.0000000180025095e-35
decision_type=2 2 2 2 2
left_child=1 4 -2 -3 -1
right_child=2 3 -4 -5 -6
leaf_value=-0.002675738736349448 -0.0034578402905537688 0.004354704491836882 0.0022819438742067914 0.001010377452680432 0.00071098259809480706
leaf_count=347 2185 1547 162 575 1393
internal_value=0 0.383749 -0.60984 0.692506 0.00375652
internal_count=6209 3862 2347 2122 1740
shrinkage=0.005


Tree=2
num_leaves=6
num_cat=0
split_feature=3 4 20 4 3
split_gain=115.947 50.8708 50.0283 29.8572 48.2221
threshold=6.5000000000000009 4.5000000000000009 1.5000000000000002 2.5000000000000004 1.5000000000000002
decision_type=2 2 2 2 2
left_child=2 -2 3 4 -1
right_child=1 -3 -4 -5 -6
leaf_value=-0.0018068461682282449 0.0040229400075562438 -0.00053238029364262123 0.0034722332326075802 -0.0019145265528442835 0.0010056955406291903
leaf_count=1161 907 350 275 2084 1432
internal_value=0 0.548274 -0.147877 -0.19891 -0.0491486
internal_count=6209 1257 4952 4677 2593
shrinkage=0.005


Tree=3
num_leaves=6
num_cat=0
split_feature=5 3 3 4 5
split_gain=379.517 125.745 38.9423 23.8473 22.416
threshold=1.5000000000000002 6.5000000000000009 1.5000000000000002 6.5000000000000009 1.0000000180025095e-35
decision_type=2 2 2 2 2
left_child=1 2 -1 -2 -4
right_child=3 -3 4 -5 -6
leaf_value=-0.000312021684391494 -0.003602226420642245 0.0055196324614783607 0.0027314468658277201 -0.00021268123053038164 5.0804526464444334e-06
leaf_count=1316 2084 827 1265 264 453
internal_value=0 0.397102 0.201481 -0.64622 0.405408
internal_count=6209 3861 3034 2348 1718
shrinkage=0.005


Tree=4
num_leaves=6
num_cat=0
split_feature=5 3 5 3 5
split_gain=371.879 130.613 32.4627 23.9194 22.4777
threshold=1.5000000000000002 3.5000000000000004 1.0000000180025095e-35 1.0000000180025095e-35 2.5000000000000004
decision_type=2 2 2 2 2
left_child=1 3 -3 -1 -2
right_child=4 2 -4 -5 -6
leaf_value=-0.0011004792127517632 -0.0016239993445788107 0.0048795034624329213 0.0015468840108063167 0.0011074724305435997 -0.0039429481284406695
leaf_count=844 681 1266 444 1354 1620
internal_value=0 0.383145 0.806677 0.0500388 -0.65399
internal_count=6209 3908 1710 2198 2301
shrinkage=0.005


Tree=5
num_leaves=6
num_cat=0
split_feature=3 20 4 4 3
split_gain=133.54 58.7381 45.5651 37.6771 47.1414
threshold=6.5000000000000009 1.5000000000000002 3.5000000000000004 2.5000000000000004 1.5000000000000002
decision_type=2 2 2 2 2
left_child=1 3 -2 4 -1
right_child=2 -3 -4 -5 -6
leaf_value=-0.0018083046308969336 0.0044137912696044033 0.0037102950340067976 0.0002742317564533585 -0.0021416471973794995 0.00097092348607440029
leaf_count=1171 781 276 456 2104 1421
internal_value=0 -0.168208 0.582713 -0.22331 -0.0551506
internal_count=6209 4972 1237 4696 2592
shrinkage=0.005


Tree=6
num_leaves=6
num_cat=0
split_feature=20 2 0 6 19
split_gain=55.0284 48.5169 44.0487 20.9294 17.5339
threshold=1.5000000000000002 4.5000000000000009 21.500000000000004 24.500000000000004 1.5000000000000002
decision_type=2 2 2 2 2
left_child=1 2 -1 -3 -4
right_child=-2 3 4 -5 -6
leaf_value=0.0014298346694867612 0.0037072118847613863 0.0013108658447373322 -0.0017590342311107623 -0.0014830581044234297 0.001667749624274328
leaf_count=640 406 2087 2591 323 162
internal_value=0 -0.0365174 -0.195687 0.185307 -0.309497
internal_count=6209 5803 3393 2410 2753
shrinkage=0.005


Tree=7
num_leaves=6
num_cat=0
split_feature=5 5 4 0 50
split_gain=326.966 35.1203 31.7872 23.8771 24.013
threshold=1.5000000000000002 1.0000000180025095e-35 6.5000000000000009 22.500000000000004 1.0000000180025095e-35
decision_type=2 2 2 2 2
left_child=1 3 -2 -1 -5
right_child=2 -3 -4 4 -6
leaf_value=0.0039032912183692534 -0.0033743697825625836 0.000289400330458973 0.00041029890119448863 0.0015799471942918558 0.0078809632479606741
leaf_count=909 2069 1068 255 1843 65
internal_value=0 0.380784 -0.589965 0.501275 0.364502
internal_count=6209 3885 2324 2817 1908
shrinkage=0.005


Tree=8
num_leaves=6
num_cat=0
split_feature=3 4 19 2 3
split_gain=119.71 69.428 17.5321 25.5171 15.344
threshold=4.5000000000000009 3.5000000000000004 1.5000000000000002 2.5000000000000004 1.5000000000000002
decision_type=2 2 2 2 2
left_child=2 -2 4 -4 -1
right_child=1 -3 3 -5 -6
leaf_value=-0.0017076374206602557 0.0036413793954844266 -0.00020047282909942964 0.0055570390057728715 -0.00060728333540909234 -0.00037522820267000444
leaf_count=2041 1244 804 103 200 1817
internal_value=0 0.425891 -0.17873 0.293251 -0.217197
internal_count=6209 2048 4161 303 3858
shrinkage=0.005


Tree=9
num_leaves=6
num_cat=0
split_feature=5 3 5 20 3
split_gain=323.71 86.5175 63.1929 31.4856 26.9632
threshold=1.0000000180025095e-35 4.5000000000000009 2.5000000000000004 1.0000000180025095e-35 6.5000000000000009
decision_type=2 2 2 2 2
left_child=1 -1 4 -4 -2
right_child=2 -3 3 -5 -6
leaf_value=0.0012732894847590698 -0.0013450517341894266 0.0050279589367324649 -0.0045208329241805808 -0.0012965409599973898 0.0018824408971784825
leaf_count=1859 1410 1001 1116 489 334
internal_value=0 0.520894 -0.41622 -0.711265 -0.142029
internal_count=6209 2860 3349 1605 1744
shrinkage=0.005


Tree=10
num_leaves=6
num_cat=0
split_feature=3 3 2 50 19
split_gain=128.373 34.507 19.3636 15.5326 14.8554
threshold=6.5000000000000009 1.5000000000000002 12.500000000000002 1.0000000180025095e-35 1.5000000000000002
decision_type=2 2 2 2 2
left_child=1 4 -2 -3 -1
right_child=2 3 -4 -5 -6
leaf_value=-0.0019225765600636604 0.0037606123684775141 -9.3570786161683442e-05 0.00090167283867720533 0.0049577650153376377 0.0017288774819135793
leaf_count=2041 884 2713 389 63 119
internal_value=0 -0.146229 0.581887 0.00421968 -0.341685
internal_count=6209 4936 1273 2776 2160
shrinkage=0.005


Tree=11
num_leaves=6
num_cat=0
split_feature=4 2 19 4 2
split_gain=57.2827 70.6084 19.5002 18.9305 23.2256
threshold=2.5000000000000004 2.5000000000000004 1.5000000000000002 6.5000000000000009 3.5000000000000004
decision_type=2 2 2 2 2
left_child=1 2 -1 -2 -5
right_child=3 -3 -4 4 -6
leaf_value=-0.0011668691211102694 -0.0014817733038534706 0.0020909547464704383 0.0046237170613183769 0.0058992069655831184 -0.00027439453397857849
leaf_count=1363 2419 1985 60 77 305
internal_value=0 0.168507 -0.178864 -0.227894 0.19295
internal_count=6209 3408 1423 2801 382
shrinkage=0.005


Tree=12
num_leaves=6
num_cat=0
split_feature=2 4 20 2 17
split_gain=55.5151 80.6575 33.2385 30.4799 30.3446
threshold=1.5000000000000002 3.5000000000000004 1.0000000180025095e-35 4.5000000000000009 1.0000000180025095e-35
decision_type=2 2 2 2 2
left_child=2 3 -1 -2 -4
right_child=1 -3 4 -5 -6
leaf_value=-0.002395897972735941 0.00041126468864891008 -0.0012462913126179318 -0.00080687794130735878 0.0025633838445539335 0.0051656530267693724
leaf_count=1296 1280 1594 306 1611 122
internal_value=0 0.120106 -0.313823 0.324372 0.176298
internal_count=6209 4485 1724 2891 428
shrinkage=0.005


Tree=13
num_leaves=6
num_cat=0
split_feature=3 4 20 3 4
split_gain=131.516 49.237 47.1884 32.5786 38.5635
threshold=6.5000000000000009 3.5000000000000004 1.5000000000000002 1.5000000000000002 2.5000000000000004
decision_type=2 2 2 2 2
left_child=2 -2 3 -1 -5
right_child=1 -3 -4 4 -6
leaf_value=-0.001925151297431897 0.0044785757299530818 0.00021977635979681537 0.0034506585970292924 0.00095271271123886444 -0.0015441628208227693
leaf_count=2038 818 456 267 1428 1202
internal_value=0 0.596572 -0.139801 -0.188941 -0.0355875
internal_count=6209 1274 4935 4668 2630
shrinkage=0.005


Tree=14
num_leaves=6
num_cat=0
split_feature=5 2 20 5 2
split_gain=334.073 53.0286 45.6778 39.7794 30.108
threshold=1.5000000000000002 2.5000000000000004 1.5000000000000002 1.0000000180025095e-35 26.500000000000004
decision_type=2 2 2 2 2
left_child=1 -1 -2 4 -3
right_child=2 3 -4 -5 -6
leaf_value=0.00024309656736889258 -0.0035127688933267922 0.0039376185314958304 0.0021243969211369785 0.00053976720467661856 -0.00095935608281740264
leaf_count=1485 2165 1605 156 662 136
internal_value=0 0.357939 -0.623908 0.545728 0.708458
internal_count=6209 3888 2321 2403 1741
shrinkage=0.005


Tree=15
num_leaves=6
num_cat=0
split_feature=2 4 4 0 2
split_gain=65.0234 65.0085 32.7244 33.235 22.4947
threshold=4.5000000000000009 3.5000000000000004 6.5000000000000009 21.500000000000004 12.500000000000002
decision_type=2 2 2 2 2
left_child=2 4 3 -1 -2
right_child=1 -3 -4 -5 -6
leaf_value=0.00092100869130995174 0.0030976537520473434 -0.00092549291573786855 0.0049144486817167292 -0.0016577057532335096 0.00021212063550758779
leaf_count=638 1197 1004 91 2879 400
internal_value=0 0.221851 -0.203555 -0.23659 0.478269
internal_count=6209 2601 3608 3517 1597
shrinkage=0.005


Tree=16
num_leaves=6
num_cat=0
split_feature=5 5 19 19 5
split_gain=322.786 41.849 20.2498 16.1773 13.482
threshold=1.5000000000000002 1.0000000180025095e-35 1.5000000000000002 3.5000000000000004 2.5000000000000004
decision_type=2 2 2 2 2
left_child=1 2 -1 4 -2
right_child=3 -3 -4 -5 -6
leaf_value=0.0021163469067845063 -0.0018288325978176182 7.0902586131276684e-06 0.0051221637152377621 0.0033947672252882307 -0.0037031924127598446
leaf_count=2575 656 1057 276 35 1610
internal_value=0 0.355367 0.484483 -0.611713 -0.634762
internal_count=6209 3908 2851 2301 2266
shrinkage=0.005


Tree=17
num_leaves=6
num_cat=0
split_feature=5 3 5 4 119
split_gain=293.738 99.6567 48.0458 25.8916 25.1639
threshold=1.5000000000000002 2.5000000000000004 1.0000000180025095e-35 5.5000000000000009 1.0000000180025095e-35
decision_type=2 2 2 2 2
left_child=1 4 -3 -2 -1
right_child=3 2 -4 -5 -6
leaf_value=-0.0024147062003448466 -0.0035027628483637499 0.0041003324642971423 0.00055039829482013978 -0.00068296519135115444 0.00053309355652158782
leaf_count=391 1838 1545 563 458 1414
internal_value=0 0.332914 0.633753 -0.590248 -0.0194886
internal_count=6209 3913 2108 2296 1805
shrinkage=0.005


Tree=18
num_leaves=6
num_cat=0
split_feature=3 20 0 79 3
split_gain=118.584 41.0489 33.8301 18.0929 18.2847
threshold=6.5000000000000009 1.5000000000000002 21.500000000000004 1.0000000180025095e-35 1.5000000000000002
decision_type=2 2 2 2 2
left_child=1 2 -1 4 -4
right_child=-2 -3 3 -5 -6
leaf_value=0.00080908663279898073 0.0027945376128441814 0.0030741467143621465 -0.0023927514585889657 0.0017924064056539103 -0.00086810663203634362
leaf_count=922 1268 279 1567 175 1998
internal_value=0 -0.141527 -0.188458 -0.276158 -0.308884
internal_count=6209 4941 4662 3740 3565
shrinkage=0.005


Tree=19
num_leaves=6
num_cat=0
split_feature=2 2 0 50 19
split_gain=40.5699 31.7181 31.6929 21.5751 21.0963
threshold=6.5000000000000009 18.500000000000004 21.500000000000004 1.0000000180025095e-35 1.5000000000000002
decision_type=2 2 2 2 2
left_child=2 -2 -1 4 -4
right_child=1 -3 3 -5 -6
leaf_value=0.0012013814561728923 0.0019624743716348185 -0.0013316552164125029 -0.0013708108711149043 0.0043496418613625885 0.0015868853261238013
leaf_count=845 1422 385 3213 73 271
internal_value=0 0.249865 -0.115618 -0.201712 -0.226479
internal_count=6209 1807 4402 3557 3484
shrinkage=0.005


Tree=20
num_leaves=6
num_cat=0
split_feature=5 2 5 2 20
split_gain=305.354 58.3683 57.2288 46.6898 37.5795
threshold=1.0000000180025095e-35 2.5000000000000004 2.5000000000000004 24.500000000000004 1.0000000180025095e-35
decision_type=2 2 2 2 2
left_child=1 -1 -2 -3 -4
right_child=2 3 4 -5 -6
leaf_value=0.0005400429815399574 -0.00081354030710592681 0.0040627338298146482 -0.0046068520168410483 -0.0021289844517591041 -0.0011664087926189911
leaf_count=1102 1734 1616 1106 132 519
internal_value=0 0.484358 -0.426065 0.716175 -0.704832
internal_count=6209 2850 3359 1748 1625
shrinkage=0.005


Tree=21
num_leaves=6
num_cat=0
split_feature=3 20 3 20 17
split_gain=112.167 55.8116 32.6237 20.3875 19.9588
threshold=6.5000000000000009 1.5000000000000002 1.5000000000000002 1.0000000180025095e-35 1.0000000180025095e-35
decision_type=2 2 2 2 2
left_child=1 2 3 -1 -5
right_child=-2 -3 -4 4 -6
leaf_value=-0.0025647552990036879 0.0027090748962315309 0.0036526397583271863 -0.00022535071143351987 -0.001421445791225197 0.0032019830352475499
leaf_count=1534 1252 284 2649 355 135
internal_value=0 -0.142456 -0.197375 -0.39521 -0.0175024
internal_count=6209 4957 4673 2024 490
shrinkage=0.005


Tree=22
num_leaves=6
num_cat=0
split_feature=2 4 20 0 4
split_gain=60.0525 77.4868 44.2457 39.9787 34.5173
threshold=4.5000000000000009 3.5000000000000004 1.5000000000000002 21.500000000000004 6.5000000000000009
decision_type=2 2 2 2 2
left_child=2 -2 3 -1 -5
right_child=1 -3 -4 4 -6
leaf_value=0.0012064699824523004 0.0026012743438744656 -0.00097412908936438862 0.0047385559515449194 -0.0018086638215021648 0.0052713589209995287
leaf_count=649 1623 1034 139 2694 70
internal_value=0 0.242093 -0.165785 -0.213819 -0.322762
internal_count=6209 2657 3552 3413 2764
shrinkage=0.005


Tree=23
num_leaves=6
num_cat=0
split_feature=3 0 6 119 17
split_gain=96.4965 29.106 21.0993 19.1139 12.5491
threshold=4.5000000000000009 21.500000000000004 23.500000000000004 1.0000000180025095e-35 1.0000000180025095e-35
decision_type=2 2 2 2 2
left_child=1 -1 4 -3 -2
right_child=2 3 -4 -5 -6
leaf_value=0.00083956229648541746 0.0029073581911090917 -0.0028852210241216317 -0.00071421777616901497 -0.00094456713222928318 0.0010790342639870447
leaf_count=769 1061 716 305 2616 742
internal_value=0 -0.189901 0.349015 -0.274125 0.43417
internal_count=6209 4101 2108 3332 1803
shrinkage=0.005


Tree=24
num_leaves=6
num_cat=0
split_feature=5 20 5 17 0
split_gain=308.641 53.5904 43.1975 31.6815 29.5098
threshold=1.5000000000000002 1.0000000180025095e-35 1.0000000180025095e-35 1.0000000180025095e-35 22.500000000000004
decision_type=2 2 2 2 2
left_child=2 -2 4 -3 -1
right_child=1 3 -4 -5 -6
leaf_value=0.0039707851962166082 -0.0040070651146123801 -0.0020339485027569388 0 0.0025322654503113547 0.0016844629888041649
leaf_count=923 1588 531 1061 226 1880
internal_value=0 -0.585473 0.357026 -0.127123 0.490121
internal_count=6209 2345 3864 757 2803
shrinkage=0.005


Tree=25
num_leaves=6
num_cat=0
split_feature=0 13 4 13 4
split_gain=42.1233 26.2877 13.9812 15.1556 13.9413
threshold=21.500000000000004 1.0000000180025095e-35 2.5000000000000004 1.0000000180025095e-35 2.5000000000000004
decision_type=2 2 2 2 2
left_child=2 4 3 -1 -2
right_child=1 -3 -4 -5 -6
leaf_value=0.0034660534650376817 -0.00033744281108886569 0.00057014406148021271 0.00027320044558971581 -0 -0.0017303682929806585
leaf_count=547 1732 1776 481 179 1494
internal_value=0 -0.0859799 0.341386 0.522821 -0.197655
internal_count=6209 5002 1207 726 3226
shrinkage=0.005


Tree=26
num_leaves=6
num_cat=0
split_feature=3 4 20 3 4
split_gain=117.746 55.0523 38.713 28.9628 44.9305
threshold=6.5000000000000009 3.5000000000000004 1.5000000000000002 1.5000000000000002 2.5000000000000004
decision_type=2 2 2 2 2
left_child=2 -2 3 -1 -5
right_child=1 -3 -4 4 -6
leaf_value=-0.0018637601747426124 0.004380163303585859 -7.702513451389133e-06 0.0030908135294391713 0.0010117177646849036 -0.0016665373920443302
leaf_count=2024 805 463 261 1429 1227
internal_value=0 0.55565 -0.141777 -0.185924 -0.0424972
internal_count=6209 1268 4941 4680 2656
shrinkage=0.005


Tree=27
num_leaves=6
num_cat=0
split_feature=5 3 20 119 5
split_gain=273.911 111.954 45.3634 36.4646 24.1818
threshold=1.5000000000000002 3.5000000000000004 1.5000000000000002 1.0000000180025095e-35 1.0000000180025095e-35
decision_type=2 2 2 2 2
left_child=1 3 -2 -1 -3
right_child=2 4 -4 -5 -6
leaf_value=-0.0025363359001701687 -0.0032044087742944933 0.0043277133231405893 0.0024279268820521145 0.00075840781524465521 0.0013757262235217381
leaf_count=444 2201 1245 155 1742 422
internal_value=0 0.323889 -0.563463 0.0154522 0.720483
internal_count=6209 3853 2356 2186 1667
shrinkage=0.005


Tree=28
num_leaves=6
num_cat=0
split_feature=20 4 0 4 12
split_gain=51.5397 49.9044 33.8893 20.5137 14.4634
threshold=1.5000000000000002 2.5000000000000004 21.500000000000004 6.5000000000000009 1.0000000180025095e-35
decision_type=2 2 2 2 2
left_child=1 2 -1 4 -3
right_child=-2 3 -4 -5 -6
leaf_value=0.002636528551621753 0.0036001061027506171 -0.00058313465538705313 5.0291247437200961e-05 0.0010571513114784625 -0.0023231351365108604
leaf_count=682 387 893 2520 333 1394
internal_value=0 -0.048242 0.122449 -0.259945 -0.330803
internal_count=6209 5822 3202 2620 2287
shrinkage=0.005


Tree=29
num_leaves=6
num_cat=0
split_feature=5 20 17 5 0
split_gain=288.768 54.4493 41.1935 37.8395 28.0752
threshold=1.5000000000000002 1.0000000180025095e-35 1.0000000180025095e-35 1.0000000180025095e-35 21.500000000000004
decision_type=2 2 2 2 2
left_child=3 -2 -3 4 -1
right_child=1 2 -4 -5 -6
leaf_value=0.0042991186718783977 -0.0040587211930364058 -0.002154685519854298 0.0031964392912553303 -1.2338292071035136e-05 0.0017060640927154633
leaf_count=569 1555 540 207 1067 2271
internal_value=0 -0.590904 -0.126379 0.324581 0.448019
internal_count=6209 2302 747 3907 2840
shrinkage=0.005


Tree=30
num_leaves=6
num_cat=0
split_feature=5 3 119 4 5
split_gain=303.723 85.6466 31.8128 25.5172 22.4688
threshold=1.5000000000000002 4.5000000000000009 1.0000000180025095e-35 6.5000000000000009 1.0000000180025095e-35
decision_type=2 2 2 2 2
left_child=1 2 -1 -2 -3
right_child=3 4 -4 -5 -6
leaf_value=-0.0016497080058922278 -0.0033314076971562162 0.0046308941842694504 0.0012045176690651026 3.9849620795904785e-05 0.0015097753819932223
leaf_count=513 2060 983 2032 259 362
internal_value=0 0.348605 0.124113 -0.588987 0.763767
internal_count=6209 3890 2545 2319 1345
shrinkage=0.005


Tree=31
num_leaves=6
num_cat=0
split_feature=5 3 20 5 17
split_gain=307.167 110.298 48.282 43.3922 33.6247
threshold=1.5000000000000002 2.5000000000000004 1.0000000180025095e-35 1.0000000180025095e-35 1.0000000180025095e-35
decision_type=2 2 2 2 2
left_child=1 -1 -2 -3 -4
right_child=2 3 4 -5 -6
leaf_value=-0.0001551283477349232 -0.0040664759260892495 0.0041541211370465479 -0.0022541749203114155 0.00072448897040443153 0.0024888164100410511
leaf_count=1806 1558 1548 537 541 219
internal_value=0 0.33923 -0.604215 0.656981 -0.168613
internal_count=6209 3895 2314 2089 756
shrinkage=0.005


Tree=32
num_leaves=6
num_cat=0
split_feature=5 3 20 5 3
split_gain=274.923 79.1917 46.1648 35.2128 31.4484
threshold=1.5000000000000002 1.5000000000000002 1.0000000180025095e-35 1.0000000180025095e-35 6.5000000000000009
decision_type=2 2 2 2 2
left_child=1 -1 -2 4 -3
right_child=2 3 -4 -5 -6
leaf_value=-0.00040686078689585066 -0.0038232624615367333 0.0024130384283969982 -0.00064767702607371896 0.00057509636910814768 0.0052908972808498808
leaf_count=1320 1595 1285 731 659 619
internal_value=0 0.325456 -0.566408 0.533909 0.674933
internal_count=6209 3883 2326 2563 1904
shrinkage=0.005


Tree=33
num_leaves=6
num_cat=0
split_feature=5 3 5 17 0
split_gain=303.775 94.1747 44.3725 24.8774 21.6256
threshold=1.5000000000000002 2.5000000000000004 1.0000000180025095e-35 1.0000000180025095e-35 21.500000000000004
decision_type=2 2 2 2 2
left_child=1 4 3 -3 -1
right_child=-2 2 -4 -5 -6
leaf_value=0.0024481684166155096 -0.0028261906022791074 0.0053234856514941054 0.00080291778352179735 0.0025864339937362178 -0.00048491705108993775
leaf_count=327 2340 892 579 662 1409
internal_value=0 0.371125 0.656788 0.836292 0.0124741
internal_count=6209 3869 2133 1554 1736
shrinkage=0.005


Tree=34
num_leaves=6
num_cat=0
split_feature=5 5 20 0 20
split_gain=274.135 42.6829 35.8688 27.4287 22.473
threshold=1.5000000000000002 1.0000000180025095e-35 1.5000000000000002 22.500000000000004 1.5000000000000002
decision_type=2 2 2 2 2
left_child=1 3 -2 -1 -3
right_child=2 4 -4 -5 -6
leaf_value=0.0037908810108365399 -0.0031276981901385602 -0.00051709609159914253 0.0017947159397666899 0.0015951964954084993 0.0052553173502744343
leaf_count=929 2177 978 161 1891 73
internal_value=0 0.335531 -0.55443 0.466455 -0.0148531
internal_count=6209 3871 2338 2820 1051
shrinkage=0.005


Tree=35
num_leaves=6
num_cat=0
split_feature=5 5 0 19 5
split_gain=297.11 28.333 24.0549 16.8809 16.2037
threshold=1.5000000000000002 1.0000000180025095e-35 22.500000000000004 3.5000000000000004 2.5000000000000004
decision_type=2 2 2 2 2
left_child=1 2 -1 4 -2
right_child=3 -3 -4 -5 -6
leaf_value=0.0036329197750398596 -0.0016278115779284309 0.00023915584249742727 0.0015618554291386094 0.0037725762036354528 -0.0036264537189243454
leaf_count=912 689 1052 1910 34 1612
internal_value=0 0.341912 0.448961 -0.584936 -0.608051
internal_count=6209 3874 2822 2335 2301
shrinkage=0.005


Tree=36
num_leaves=6
num_cat=0
split_feature=5 3 20 17 5
split_gain=282.858 113.243 52.4174 38.1306 27.8252
threshold=1.5000000000000002 2.5000000000000004 1.0000000180025095e-35 1.0000000180025095e-35 1.0000000180025095e-35
decision_type=2 2 2 2 2
left_child=1 -1 -2 -4 -3
right_child=2 4 3 -5 -6
leaf_value=-0.00015661352913732694 -0.0038727075221307427 0.0040405921606315679 -0.0020529567992285595 0.0029860599769997703 0.0012729269767546259
leaf_count=1789 1573 1544 530 223 550
internal_value=0 0.346621 -0.558556 -0.104027 0.666669
internal_count=6209 3883 2326 753 2094
shrinkage=0.005


Tree=37
num_leaves=6
num_cat=0
split_feature=4 2 19 19 6
split_gain=50.4961 64.0636 21.4971 17.2421 16.3576
threshold=2.5000000000000004 3.5000000000000004 1.5000000000000002 3.5000000000000004 24.500000000000004
decision_type=2 2 2 2 2
left_child=1 2 -1 -2 -3
right_child=3 4 -4 -5 -6
leaf_value=-0.00080721213295561697 -0.0011648685170600531 0.0026055888319212539 0.0044036914618649113 0.0050293512647198073 -0.00064742597236164018
leaf_count=1692 2731 1484 84 44 174
internal_value=0 0.162945 -0.107564 -0.210167 0.45071
internal_count=6209 3434 1776 2775 1658
shrinkage=0.005


Tree=38
num_leaves=6
num_cat=0
split_feature=3 4 4 3 4
split_gain=116.841 49.6309 27.4516 42.1142 23.396
threshold=6.5000000000000009 4.5000000000000009 2.5000000000000004 1.5000000000000002 6.5000000000000009
decision_type=2 2 2 2 2
left_child=2 -2 3 -1 -4
right_child=1 -3 4 -5 -6
leaf_value=-0.0014882586236225921 0.0038967067794040363 -0.00060336293408131563 -0.0020403866123580626 0.0010685794233193824 0.001255945715932405
leaf_count=1254 931 345 1944 1483 252
internal_value=0 0.535771 -0.15685 -0.0176648 -0.329927
internal_count=6209 1276 4933 2737 2196
shrinkage=0.005


Tree=39
num_leaves=6
num_cat=0
split_feature=5 2 20 5 2
split_gain=268.608 54.6545 42.791 32.1694 31.8364
threshold=1.5000000000000002 3.5000000000000004 1.5000000000000002 1.0000000180025095e-35 26.500000000000004
decision_type=2 2 2 2 2
left_child=1 -1 -2 4 -3
right_child=2 3 -4 -5 -6
leaf_value=0.0003698853956298695 -0.0031711425208089 0.0040884334296686078 0.0021818612544549859 0.00062295716355110185 -0.0010439771287050132
leaf_count=1896 2159 1316 163 543 132
internal_value=0 0.327326 -0.555349 0.562733 0.721509
internal_count=6209 3887 2322 1991 1448
shrinkage=0.005


Tree=40
num_leaves=6
num_cat=0
split_feature=5 3 20 3 119
split_gain=279.892 83.6133 44.6026 27.8822 23.2811
threshold=1.5000000000000002 2.5000000000000004 1.5000000000000002 6.5000000000000009 1.0000000180025095e-35
decision_type=2 2 2 2 2
left_child=1 4 -2 -3 -1
right_child=2 3 -4 -5 -6
leaf_value=-0.0023191863325167147 -0.0032301350368009701 0.0020466602770114655 0.0021732664169209662 0.004528935496949181 0.0006196099046888666
leaf_count=359 2179 1273 167 820 1411
internal_value=0 0.334006 -0.565289 0.608167 0.00192987
internal_count=6209 3863 2346 2093 1770
shrinkage=0.005


Tree=41
num_leaves=6
num_cat=0
split_feature=5 20 2 2 5
split_gain=278.382 57.923 42.9802 36.4293 35.493
threshold=1.5000000000000002 1.0000000180025095e-35 1.5000000000000002 24.500000000000004 1.0000000180025095e-35
decision_type=2 2 2 2 2
left_child=2 -2 -1 4 -4
right_child=1 -3 3 -5 -6
leaf_value=1.2537768719387635e-05 -0.0038595796941700566 -0.00028607656206574374 0.0034737921651091476 -0.0017056393361676192 0.00073742663448050916
leaf_count=1091 1565 722 1926 199 706
internal_value=0 -0.547021 0.354646 0.486766 0.551165
internal_count=6209 2287 3922 2831 2632
shrinkage=0.005


Tree=42
num_leaves=6
num_cat=0
split_feature=20 4 2 0 2
split_gain=45.1152 45.3042 62.4237 15.6309 14.8402
threshold=1.5000000000000002 2.5000000000000004 3.5000000000000004 21.500000000000004 12.500000000000002
decision_type=2 2 2 2 2
left_child=1 2 3 -1 -4
right_child=-2 -3 4 -5 -6
leaf_value=0.0011441318268904568 0.003274455385881947 -0.0012550625595425453 0.0025355386564280746 -0.001302261779840866 -2.2588632136184124e-05
leaf_count=344 409 2572 1258 1345 281
internal_value=0 -0.0454364 0.115015 -0.157381 0.411546
internal_count=6209 5800 3228 1689 1539
shrinkage=0.005


Tree=43
num_leaves=6
num_cat=0
split_feature=5 3 20 5 2
split_gain=267.162 114.447 43.5381 36.1907 25.6888
threshold=1.5000000000000002 2.5000000000000004 1.5000000000000002 1.0000000180025095e-35 31.500000000000004
decision_type=2 2 2 2 2
left_child=1 -1 -2 4 -3
right_child=2 3 -4 -5 -6
leaf_value=-0.00031613108272355472 -0.0031377833624447594 0.0042840253663395172 0.0023322681719654191 0.00086759023059803698 -0.0015942898580846435
leaf_count=1727 2194 1510 158 545 75
internal_value=0 0.328444 -0.550038 0.642325 0.798059
internal_count=6209 3857 2352 2130 1585
shrinkage=0.005


Tree=44
num_leaves=6
num_cat=0
split_feature=5 50 5 4 5
split_gain=247.571 23.6725 20.9349 17.197 16.27
threshold=1.5000000000000002 1.0000000180025095e-35 1.0000000180025095e-35 6.5000000000000009 3.5000000000000004
decision_type=2 2 2 2 2
left_child=1 2 -1 4 -2
right_child=3 -3 -4 -5 -6
leaf_value=0.0019407317481193831 -0.0020237579036558322 0.0066940171963385808 0.00017744296078997274 -6.3020974318230406e-06 -0.0039714932874497658
leaf_count=2792 1106 93 1005 260 953
internal_value=0 0.32421 0.296676 -0.524023 -0.588201
internal_count=6209 3890 3797 2319 2059
shrinkage=0.005


Tree=45
num_leaves=6
num_cat=0
split_feature=5 3 20 17 0
split_gain=284.289 98.2223 45.4818 32.8709 27.8315
threshold=1.5000000000000002 4.5000000000000009 1.0000000180025095e-35 1.0000000180025095e-35 21.500000000000004
decision_type=2 2 2 2 2
left_child=1 4 -2 -4 -1
right_child=2 -3 3 -5 -6
leaf_value=0.0027197391359855901 -0.0038278197255652313 0.0039720732854520348 -0.0020484650559971134 0.0027086909276554183 1.552647741256481e-05
leaf_count=501 1548 1339 548 210 2063
internal_value=0 0.349982 -0.56005 -0.137935 0.111656
internal_count=6209 3903 2306 758 2564
shrinkage=0.005


Tree=46
num_leaves=6
num_cat=0
split_feature=5 20 2 2 2
split_gain=254.56 45.861 41.0804 27.584 28.7556
threshold=1.5000000000000002 1.5000000000000002 1.5000000000000002 26.500000000000004 6.5000000000000009
decision_type=2 2 2 2 2
left_child=2 -2 -1 4 -4
right_child=1 -3 3 -5 -6
leaf_value=-5.0886930639460291e-05 -0.0030486862945080144 0.0026029467426096939 0.0017079732733934435 -0.0015191313114872587 0.0039705355978764192
leaf_count=1073 2175 156 1656 178 971
internal_value=0 -0.529759 0.329746 0.459041 0.512471
internal_count=6209 2331 3878 2805 2627
shrinkage=0.005


Tree=47
num_leaves=6
num_cat=0
split_feature=2 4 4 0 2
split_gain=41.9889 74.9205 35.609 27.5377 23.5816
threshold=3.5000000000000004 3.5000000000000004 5.5000000000000009 22.500000000000004 12.500000000000002
decision_type=2 2 2 2 2
left_child=2 4 3 -1 -2
right_child=1 -3 -4 -5 -6
leaf_value=0.00041058347675999981 0.0026781936696879888 -0.0011384376675100819 0.0037165508463328722 -0.0017668836586697332 -3.2924457397893973e-05
leaf_count=886 1564 1197 170 1978 414
internal_value=0 0.177785 -0.1608 -0.21685 0.420598
internal_count=6209 3175 3034 2864 1978
shrinkage=0.005


Tree=48
num_leaves=6
num_cat=0
split_feature=5 5 4 0 12
split_gain=262.881 34.6814 27.2253 24.931 16.1731
threshold=1.5000000000000002 1.0000000180025095e-35 6.5000000000000009 21.500000000000004 1.0000000180025095e-35
decision_type=2 2 2 2 2
left_child=1 3 -2 -1 -5
right_child=2 -3 -4 4 -6
leaf_value=0.0040279018605485937 -0.0032238155374845431 -6.1083118390708923e-05 0.00034656014640065661 0.0026103508572842466 0.0008137752792121549
leaf_count=581 2081 1035 247 983 1282
internal_value=0 0.307049 -0.566713 0.423294 0.321485
internal_count=6209 3881 2328 2846 2265
shrinkage=0.005


Tree=49
num_leaves=6
num_cat=0
split_feature=5 3 3 2 2
split_gain=259.954 91.4122 37.8085 23.505 16.2879
threshold=1.5000000000000002 1.5000000000000002 7.5000000000000009 12.500000000000002 19.500000000000004
decision_type=2 2 2 2 2
left_child=1 -1 4 -4 -3
right_child=-2 2 3 -5 -6
leaf_value=-0.00059145260482012976 -0.0027432884609778926 0.0021546074606385705 0.0061739468952246692 0.001827459348036067 -0.0026009603997761339
leaf_count=1314 2326 1838 447 211 73
internal_value=0 0.320624 0.542858 0.966871 0.391486
internal_count=6209 3883 2569 658 1911
shrinkage=0.005


Tree=50
num_leaves=6
num_cat=0
split_feature=5 3 5 2 3
split_gain=272.13 111.186 30.008 29.6419 26.5976
threshold=1.5000000000000002 1.5000000000000002 1.0000000180025095e-35 35.500000000000007 4.5000000000000009
decision_type=2 2 2 2 2
left_child=1 -1 3 4 -3
right_child=-2 2 -4 -5 -6
leaf_value=-0.00075608877901045329 -0.0028386733871048268 0.0024235484897414182 0.0009648180687774953 -0.0029516840448157596 0.0049883791013305718
leaf_count=1349 2293 879 686 65 937
internal_value=0 0.324518 0.571712 0.70523 0.754909
internal_count=6209 3916 2567 1881 1816
shrinkage=0.005


Tree=51
num_leaves=6
num_cat=0
split_feature=5 3 20 5 17
split_gain=245.159 86.7658 47.061 25.6149 24.037
threshold=1.5000000000000002 3.5000000000000004 1.0000000180025095e-35 1.0000000180025095e-35 1.0000000180025095e-35
decision_type=2 2 2 2 2
left_child=1 -1 -2 -3 -4
right_child=2 3 4 -5 -6
leaf_value=0.00012034668836549167 -0.003788652772502738 0.0039328488939365759 -0.00176713992577282 0.00094398994958499907 0.002324354692216988
leaf_count=2207 1561 1260 545 427 209
internal_value=0 0.295109 -0.550177 0.640121 -0.118673
internal_count=6209 3894 2315 1687 754
shrinkage=0.005


Tree=52
num_leaves=6
num_cat=0
split_feature=5 20 17 2 5
split_gain=249.374 49.1607 45.1411 39.5074 28.2518
threshold=1.5000000000000002 1.0000000180025095e-35 1.0000000180025095e-35 1.5000000000000002 1.0000000180025095e-35
decision_type=2 2 2 2 2
left_child=3 -2 -3 -1 -5
right_child=1 2 -4 4 -6
leaf_value=-0 -0.0036348302363478913 -0.0020573476759554793 0.0034769364492733463 0.0029101014623598822 0.00052702901917215978
leaf_count=1082 1591 520 220 2058 738
internal_value=0 -0.519612 -0.0727073 0.331877 0.45922
internal_count=6209 2331 740 3878 2796
shrinkage=0.005


Tree=53
num_leaves=6
num_cat=0
split_feature=5 3 20 5 17
split_gain=278.571 72.1428 65.8644 52.4712 43.4749
threshold=1.0000000180025095e-35 2.5000000000000004 1.0000000180025095e-35 2.5000000000000004 1.0000000180025095e-35
decision_type=2 2 2 2 2
left_child=1 -1 3 -2 -4
right_child=2 -3 4 -5 -6
leaf_value=0.00062326638547738323 -0.0013975903526151289 0.0039252575270938353 -0.001173715748805061 -0.004563837778485018 0.0033228547429172799
leaf_count=1293 1212 1520 757 1105 322
internal_value=0 0.487037 -0.383621 -0.581237 0.0326754
internal_count=6209 2813 3396 2317 1079
shrinkage=0.005


Tree=54
num_leaves=6
num_cat=0
split_feature=5 3 20 5 2
split_gain=257.223 74.1197 53.2223 35.62 21.1733
threshold=1.5000000000000002 2.5000000000000004 1.0000000180025095e-35 1.0000000180025095e-35 37.500000000000007
decision_type=2 2 2 2 2
left_child=1 -1 -2 4 -3
right_child=2 3 -4 -5 -6
leaf_value=0.000119504859771651 -0.0037429201556098252 0.0039612128971989128 -0.00034077444092077885 0.00065339468883177131 -0.0024855412797999336
leaf_count=1782 1572 1514 744 548 49
internal_value=0 0.336203 -0.530029 0.592286 0.748276
internal_count=6209 3893 2316 2111 1563
shrinkage=0.005


Tree=55
num_leaves=6
num_cat=0
split_feature=5 3 0 20 17
split_gain=238.373 88.1731 39.0855 31.8313 28.5805
threshold=1.5000000000000002 6.5000000000000009 22.500000000000004 1.0000000180025095e-35 1.0000000180025095e-35
decision_type=2 2 2 2 2
left_child=1 2 -1 -2 -5
right_child=3 -3 -4 4 -6
leaf_value=0.00232732751123011 -0.0035494765479754981 0.0043458316056528825 -0.00016168245510282474 -0.0022152895798607571 0.0022188815838667022
leaf_count=961 1596 841 2072 525 214
internal_value=0 0.290732 0.125023 -0.541958 -0.177533
internal_count=6209 3874 3033 2335 739
shrinkage=0.005


Tree=56
num_leaves=6
num_cat=0
split_feature=5 3 20 0 17
split_gain=237.586 92.8075 39.8667 31.9712 26.79
threshold=1.5000000000000002 4.5000000000000009 1.0000000180025095e-35 21.500000000000004 1.0000000180025095e-35
decision_type=2 2 2 2 2
left_child=1 3 -2 -1 -4
right_child=2 -3 4 -5 -6
leaf_value=0.0024787010464829133 -0.0038325764605784984 0.0034281681016139162 -0.002156574777836027 -0.00040688924885474883 0.0021262098236410295
leaf_count=497 1532 1380 513 2069 218
internal_value=0 0.263741 -0.573188 0.0301242 -0.167148
internal_count=6209 3946 2263 2566 731
shrinkage=0.005


Tree=57
num_leaves=6
num_cat=0
split_feature=5 3 20 4 5
split_gain=240.338 91.036 44.4607 25.1281 21.8151
threshold=1.5000000000000002 3.5000000000000004 1.5000000000000002 6.5000000000000009 1.0000000180025095e-35
decision_type=2 2 2 2 2
left_child=1 -1 3 -2 -3
right_child=2 4 -4 -5 -6
leaf_value=0.00018495387009011523 -0.0034063368502987501 0.0040188407868767782 0.0025191735003322552 0.00023504876593296654 0.0012666214183617208
leaf_count=2208 1927 1258 158 219 439
internal_value=0 0.315003 -0.523754 -0.60451 0.666408
internal_count=6209 3905 2304 2146 1697
shrinkage=0.005


Tree=58
num_leaves=6
num_cat=0
split_feature=5 3 20 5 0
split_gain=201.989 70.5089 69.2183 36.393 27.5648
threshold=1.0000000180025095e-35 2.5000000000000004 1.5000000000000002 2.5000000000000004 21.500000000000004
decision_type=2 2 2 2 2
left_child=1 4 3 -2 -1
right_child=2 -3 -4 -5 -6
leaf_value=0.0032601142351264241 -0.00099382956958995387 0.0034680718539982394 0.0036692947584622501 -0.0032594143666160431 -0.00053942333550453965
leaf_count=247 1649 1570 231 1504 1008
internal_value=0 0.40935 -0.332194 -0.414474 0.0412085
internal_count=6209 2825 3384 3153 1255
shrinkage=0.005


Tree=59
num_leaves=6
num_cat=0
split_feature=2 20 19 50 2
split_gain=43.7662 46.8952 24.5261 20.305 17.9353
threshold=4.5000000000000009 1.5000000000000002 1.5000000000000002 1.0000000180025095e-35 24.500000000000004
decision_type=2 2 2 2 2
left_child=1 2 3 -1 -2
right_child=4 -3 -4 -5 -6
leaf_value=-0.0014508264717284897 0.0011798310343223946 0.0047889026711500559 0.002210614944287554 0.0048116270742327603 -0.0016370187371281065
leaf_count=3110 2429 143 216 51 260
internal_value=0 -0.168732 -0.219732 -0.267123 0.179719
internal_count=6209 3520 3377 3161 2689
shrinkage=0.005


Tree=60
num_leaves=6
num_cat=0
split_feature=5 3 119 8 4
split_gain=233.286 85.3897 32.7072 21.7749 21.6776
threshold=1.5000000000000002 6.5000000000000009 1.0000000180025095e-35 1.0000000180025095e-35 5.5000000000000009
decision_type=2 2 2 2 2
left_child=1 2 -1 -4 -2
right_child=4 -3 3 -5 -6
leaf_value=-0.0015300319509154135 -0.0031933417389854637 0.0043153831816972179 0.00017375880299034212 0.0021245489034260978 -0.00057869687052523682
leaf_count=585 1863 827 1243 1235 456
internal_value=0 0.287933 0.127222 0.231082 -0.537622
internal_count=6209 3890 3063 2478 2319
shrinkage=0.005


Tree=61
num_leaves=6
num_cat=0
split_feature=5 3 20 5 17
split_gain=219.802 69.379 39.2358 34.4834 27.3243
threshold=1.5000000000000002 2.5000000000000004 1.0000000180025095e-35 1.0000000180025095e-35 1.0000000180025095e-35
decision_type=2 2 2 2 2
left_child=1 -1 -2 -3 -4
right_child=2 3 4 -5 -6
leaf_value=-7.085864903553848e-05 -0.003509441524625785 0.003428276813809973 -0.0018560832241088627 0.00043559993642962319 0.0025195691051690355
leaf_count=1756 1580 1572 525 566 210
internal_value=0 0.287432 -0.514461 0.531458 -0.111761
internal_count=6209 3894 2315 2138 735
shrinkage=0.005


Tree=62
num_leaves=6
num_cat=0
split_feature=5 20 0 50 119
split_gain=236.075 52.0921 39.3338 40.8791 22.896
threshold=1.5000000000000002 1.0000000180025095e-35 22.500000000000004 1.0000000180025095e-35 1.0000000180025095e-35
decision_type=2 2 2 2 2
left_child=2 -2 -1 4 -4
right_child=1 -3 3 -5 -6
leaf_value=0.0029583301400630973 -0.0037915159039357844 -0.0004525160383805369 -0.0012485503695702973 0.0077882066603432165 0.0010408525448452012
leaf_count=1247 1561 770 596 79 1956
internal_value=0 -0.537192 0.292648 0.147787 0.0996128
internal_count=6209 2331 3878 2631 2552
shrinkage=0.005


Tree=63
num_leaves=6
num_cat=0
split_feature=4 4 12 8 22
split_gain=27.1629 19.275 15.1412 12.9173 10.0676
threshold=1.5000000000000002 6.5000000000000009 1.0000000180025095e-35 1.0000000180025095e-35 1.0000000180025095e-35
decision_type=2 2 2 2 2
left_child=2 4 -1 -3 -2
right_child=1 3 -4 -5 -6
leaf_value=0.0018231487905334873 -0.00041370725313835048 4.4902388277606083e-05 0.00020446769271464588 0.0040916726049699502 -0.0018115058481784747
leaf_count=1085 2459 228 1517 147 773
internal_value=0 -0.0982015 0.17822 0.342547 -0.151158
internal_count=6209 3607 2602 375 3232
shrinkage=0.005


Tree=64
num_leaves=6
num_cat=0
split_feature=5 3 3 4 5
split_gain=252.05 93.533 32.4928 24.2889 17.7368
threshold=1.5000000000000002 6.5000000000000009 1.5000000000000002 6.5000000000000009 2.5000000000000004
decision_type=2 2 2 2 2
left_child=1 2 -1 4 -2
right_child=3 -3 -4 -5 -6
leaf_value=-0.00058594853755609879 -0.0016933129742309856 0.0044482947709244026 0.0015373219558465251 0.00013433672101474352 -0.0038933472595228699
leaf_count=1336 642 834 1731 252 1414
internal_value=0 0.291316 0.122926 -0.568111 -0.643875
internal_count=6209 3901 3067 2308 2056
shrinkage=0.005


Tree=65
num_leaves=6
num_cat=0
split_feature=5 5 5 50 12
split_gain=212.198 28.7369 21.2593 19.7142 16.4463
threshold=1.5000000000000002 1.0000000180025095e-35 2.5000000000000004 1.0000000180025095e-35 1.0000000180025095e-35
decision_type=2 2 2 2 2
left_child=1 3 -2 4 -1
right_child=2 -3 -4 -5 -6
leaf_value=0.0026318273593538507 -0.0010374666288710057 -0.00012810600586350647 -0.0033037522111694496 0.0071573553508983492 0.00099787927823721096
leaf_count=1172 689 1045 1602 70 1631
internal_value=0 0.263621 -0.526483 0.368885 0.338597
internal_count=6209 3918 2291 2873 2803
shrinkage=0.005


Tree=66
num_leaves=6
num_cat=0
split_feature=5 3 5 2 6
split_gain=208.688 81.6312 29.5556 21.5332 20.2253
threshold=1.5000000000000002 2.5000000000000004 1.0000000180025095e-35 24.500000000000004 21.500000000000004
decision_type=2 2 2 2 2
left_child=1 -1 3 4 -3
right_child=-2 2 -4 -5 -6
leaf_value=-0.00031272914597104627 -0.0026339734665583982 0.0040600037111021055 0.00056129035919062558 -0.0014734702312367853 0
leaf_count=1812 2307 1302 559 83 146
internal_value=0 0.255685 0.527197 0.672827 0.731487
internal_count=6209 3902 2090 1531 1448
shrinkage=0.005


Tree=67
num_leaves=6
num_cat=0
split_feature=5 3 5 0 3
split_gain=221.585 75.299 39.5304 20.8086 18.9119
threshold=1.0000000180025095e-35 2.5000000000000004 2.5000000000000004 22.500000000000004 6.5000000000000009
decision_type=2 2 2 2 2
left_child=1 3 4 -1 -2
right_child=2 -3 -4 -5 -6
leaf_value=0.0020834374408134951 -0.0013214927838836718 0.0035007638251963219 -0.003065769172217086 -0.00071781622761379622 0.0014011755431892403
leaf_count=407 1415 1543 1625 891 328
internal_value=0 0.400338 -0.376184 0.0306779 -0.157405
internal_count=6209 2841 3368 1298 1743
shrinkage=0.005


Tree=68
num_leaves=6
num_cat=0
split_feature=3 20 4 3 4
split_gain=92.9614 50.0043 45.7656 21.2408 26.62
threshold=6.5000000000000009 1.5000000000000002 3.5000000000000004 1.5000000000000002 2.5000000000000004
decision_type=2 2 2 2 2
left_child=1 3 -2 -1 -5
right_child=2 -3 -4 4 -6
leaf_value=-0.0017090248040954757 0.0039619387099448337 0.003555749160615098 -6.7792576299446094e-06 0.00068377894464173561 -0.0013852816912718743
leaf_count=2018 782 274 483 1390 1262
internal_value=0 -0.127963 0.491977 -0.179718 -0.0561225
internal_count=6209 4944 1265 4670 2652
shrinkage=0.005


Tree=69
num_leaves=6
num_cat=0
split_feature=0 2 4 4 119
split_gain=39.2433 36.1533 47.3589 32.4538 24.8233
threshold=21.500000000000004 4.5000000000000009 3.5000000000000004 5.5000000000000009 1.0000000180025095e-35
decision_type=2 2 2 2 2
left_child=-1 3 -3 4 -2
right_child=1 2 -4 -5 -6
leaf_value=0.0017058725157083697 -0.0032799984857186325 0.0019075842959914034 -0.0011825370991343307 0.0030458149617554964 -0.00086947187205628929
leaf_count=1189 610 1250 890 181 2089
internal_value=0 -0.0738533 0.126395 -0.226692 -0.284935
internal_count=6209 5020 2140 2880 2699
shrinkage=0.005


Tree=70
num_leaves=6
num_cat=0
split_feature=5 3 20 0 17
split_gain=225.642 77.7078 31.6037 28.9161 28.2684
threshold=1.5000000000000002 6.5000000000000009 1.0000000180025095e-35 22.500000000000004 1.0000000180025095e-35
decision_type=2 2 2 2 2
left_child=1 3 -2 -1 -4
right_child=2 -3 4 -5 -6
leaf_value=0.0021044764383856217 -0.0035041182544377136 0.004122925775618398 -0.0021629409424211376 -3.4808774689663347e-05 0.0022192779563231734
leaf_count=962 1570 844 537 2079 217
internal_value=0 0.283825 -0.528931 0.128084 -0.171033
internal_count=6209 3885 2324 3041 754
shrinkage=0.005


Tree=71
num_leaves=6
num_cat=0
split_feature=5 3 20 3 5
split_gain=196.556 79.0338 38.8778 28.6411 23.0524
threshold=1.5000000000000002 6.5000000000000009 1.0000000180025095e-35 1.0000000180025095e-35 1.0000000180025095e-35
decision_type=2 2 2 2 2
left_child=1 3 -2 -1 -5
right_child=2 -3 -4 4 -6
leaf_value=-0.0010468795054751746 -0.0034225199512461653 0.0041202982693604208 -0.00047777989209959846 0.0018056261953954273 -0.00050188526052340958
leaf_count=838 1556 816 738 1642 619
internal_value=0 0.266436 -0.494508 0.11413 0.234302
internal_count=6209 3915 2294 3099 2261
shrinkage=0.005


Tree=72
num_leaves=6
num_cat=0
split_feature=5 3 20 119 20
split_gain=181.365 85.1494 48.6428 33.8122 17.6362
threshold=1.5000000000000002 4.5000000000000009 1.5000000000000002 1.0000000180025095e-35 1.0000000180025095e-35
decision_type=2 2 2 2 2
left_child=1 3 4 -1 -2
right_child=2 -3 -4 -5 -6
leaf_value=-0.0021204399321893392 -0.0033356564086456553 0.003373852287505627 0.0032395642930427059 0.0008184449124137744 -0.0011021788267067904
leaf_count=514 1559 1359 148 2056 573
internal_value=0 0.267348 -0.464794 0.0446347 -0.548158
internal_count=6209 3929 2280 2570 2132
shrinkage=0.005


Tree=73
num_leaves=6
num_cat=0
split_feature=5 20 2 5 2
split_gain=201.437 45.8633 30.2527 22.8463 28.3212
threshold=1.5000000000000002 1.5000000000000002 2.5000000000000004 1.0000000180025095e-35 33.500000000000007
decision_type=2 2 2 2 2
left_child=2 -2 -1 4 -4
right_child=1 -3 3 -5 -6
leaf_value=0.00024064666422551521 -0.0028319647388730363 0.0028487684336341674 0.0030543466776157282 0.00043523171247247604 -0.0022821888882558505
leaf_count=1483 2160 155 1653 654 104
internal_value=0 -0.484729 0.284429 0.424536 0.545261
internal_count=6209 2315 3894 2411 1757
shrinkage=0.005


Tree=74
num_leaves=6
num_cat=0
split_feature=5 3 20 5 2
split_gain=202.891 83.8728 31.7186 24.4898 20.9236
threshold=1.5000000000000002 2.5000000000000004 1.0000000180025095e-35 1.0000000180025095e-35 24.500000000000004
decision_type=2 2 2 2 2
left_child=1 -1 -2 4 -3
right_child=2 3 -4 -5 -6
leaf_value=-0.00017482609218763949 -0.003240004783044649 0.0037501960576525975 -0.00059025038056645623 0.00088823982998326211 -0.0012417218659145615
leaf_count=1760 1569 1493 754 548 85
internal_value=0 0.295873 -0.475527 0.564757 0.693459
internal_count=6209 3886 2323 2126 1578
shrinkage=0.005


Tree=75
num_leaves=6
num_cat=0
split_feature=5 3 20 119 17
split_gain=208.895 89.8326 44.8078 32.1708 30.2498
threshold=1.5000000000000002 6.5000000000000009 1.0000000180025095e-35 1.0000000180025095e-35 1.0000000180025095e-35
decision_type=2 2 2 2 2
left_child=1 3 -2 -1 -4
right_child=2 -3 4 -5 -6
leaf_value=-0.0015235523032582539 -0.0034819836291112649 0.0043872172466991764 -0.0017087340327724861 0.0011521214590461196 0.0028256426134813943
leaf_count=578 1551 838 540 2484 218
internal_value=0 0.294072 -0.489794 0.128312 -0.0706863
internal_count=6209 3900 2309 3062 758
shrinkage=0.005


Tree=76
num_leaves=6
num_cat=0
split_feature=20 4 2 4 2
split_gain=43.2074 37.9557 45.0387 22.8233 24.3453
threshold=1.5000000000000002 2.5000000000000004 1.5000000000000002 6.5000000000000009 4.5000000000000009
decision_type=2 2 2 2 2
left_child=1 2 -1 -3 -5
right_child=-2 3 -4 4 -6
leaf_value=-0.0012092498849248703 0.0033746633772011167 -0.0013988623738466677 0.0014539318848790705 0.0060976234327618393 -0.00011126298429268614
leaf_count=957 399 2282 2230 86 255
internal_value=0 -0.0166006 0.132228 -0.203305 0.290602
internal_count=6209 5810 3187 2623 341
shrinkage=0.005


Tree=77
num_leaves=6
num_cat=0
split_feature=3 20 4 0 119
split_gain=71.0112 33.5482 33.3319 26.1444 24.2936
threshold=6.5000000000000009 1.5000000000000002 3.5000000000000004 21.500000000000004 1.0000000180025095e-35
decision_type=2 2 2 2 2
left_child=1 3 -2 -1 -5
right_child=2 -3 -4 4 -6
leaf_value=0.00081856556898337912 0.0034578905043020727 0.0029296952704172333 -0 -0.0027793854535478188 -0.00067534031589544464
leaf_count=929 796 275 463 757 2989
internal_value=0 -0.100561 0.442367 -0.143324 -0.221546
internal_count=6209 4950 1259 4675 3746
shrinkage=0.005


Tree=78
num_leaves=6
num_cat=0
split_feature=2 4 20 2 0
split_gain=34.5281 34.4975 32.1183 30.4392 24.5263
threshold=6.5000000000000009 4.5000000000000009 1.5000000000000002 12.500000000000002 21.500000000000004
decision_type=2 2 2 2 2
left_child=2 3 4 -2 -1
right_child=1 -3 -4 -5 -6
leaf_value=0.00092466662922403267 0.0032456364165965442 -0.0009564845334957792 0.003491559494951182 -0 -0.0010971639762569233
leaf_count=780 828 561 195 461 3384
internal_value=0 0.233566 -0.101781 0.416558 -0.14186
internal_count=6209 1850 4359 1289 4164
shrinkage=0.005


Tree=79
num_leaves=6
num_cat=0
split_feature=5 5 2 2 2
split_gain=214.521 51.8618 38.3737 23.4492 18.8634
threshold=1.0000000180025095e-35 2.5000000000000004 2.5000000000000004 35.500000000000007 6.5000000000000009
decision_type=2 2 2 2 2
left_child=2 -2 -1 4 -4
right_child=1 -3 3 -5 -6
leaf_value=0.00039350559865460554 -0.00064987872132278818 -0.0032621178048588932 0.0020806202500559747 -0.001854346140136759 0.0043458108948211463
leaf_count=1091 1765 1589 901 97 766
internal_value=0 -0.375512 0.388582 0.572245 0.629508
internal_count=6209 3354 2855 1764 1667
shrinkage=0.005


Tree=80
num_leaves=6
num_cat=0
split_feature=5 3 5 3 119
split_gain=211.132 65.1157 42.3089 20.3454 18.2496
threshold=1.0000000180025095e-35 2.5000000000000004 2.5000000000000004 6.5000000000000009 1.0000000180025095e-35
decision_type=2 2 2 2 2
left_child=1 4 3 -2 -1
right_child=2 -3 -4 -5 -6
leaf_value=-0.0019640335300083974 -0.0011407069728256378 0.0034558859803476213 -0.0029469680895896611 0.0017032158499123646 0.00099999216170938688
leaf_count=281 1422 1554 1625 323 1004
internal_value=0 0.414986 -0.343538 -0.117939 0.0671431
internal_count=6209 2839 3370 1745 1285
shrinkage=0.005


Tree=81
num_leaves=6
num_cat=0
split_feature=5 3 119 5 3
split_gain=206.049 82.7809 39.8917 19.6038 15.8762
threshold=1.5000000000000002 4.5000000000000009 1.0000000180025095e-35 1.0000000180025095e-35 1.5000000000000002
decision_type=2 2 2 2 2
left_child=1 2 -1 -3 -4
right_child=-2 3 4 -5 -6
leaf_value=-0.0022445230537748531 -0.0025504502341785387 0.0041327532464986837 0 0.001205247491314709 0.0018285134005622823
leaf_count=527 2295 977 1045 353 1012
internal_value=0 0.27006 0.0527508 0.677495 0.182839
internal_count=6209 3914 2584 1330 2057
shrinkage=0.005


Tree=82
num_leaves=6
num_cat=0
split_feature=5 20 5 0 19
split_gain=177.869 50.782 40.458 21.5012 18.8285
threshold=1.0000000180025095e-35 1.5000000000000002 2.5000000000000004 21.500000000000004 1.5000000000000002
decision_type=2 2 2 2 2
left_child=3 2 -2 -1 -5
right_child=1 -3 -4 4 -6
leaf_value=0.0036801140148459729 -0.00076200712882612022 0.0030556547015610958 -0.0031596303877158695 0.0011348365610744048 0.0043558481361237172
leaf_count=600 1647 228 1492 2028 214
internal_value=0 -0.307171 -0.378307 0.389018 0.292286
internal_count=6209 3367 3139 2842 2242
shrinkage=0.005


Tree=83
num_leaves=6
num_cat=0
split_feature=5 3 3 4 3
split_gain=167.688 64.7309 28.1648 24.0157 21.7181
threshold=1.5000000000000002 1.5000000000000002 6.5000000000000009 6.5000000000000009 5.5000000000000009
decision_type=2 2 2 2 2
left_child=1 -1 -3 4 -2
right_child=3 2 -4 -5 -6
leaf_value=-0.00048500908027665891 -0.0031156420309513462 0.0015188529368414141 0.0038375555785592169 0.00080391971714362004 -0.00047779526449789786
leaf_count=1317 1612 1725 832 256 467
internal_value=0 0.272017 0.458884 -0.429558 -0.505595
internal_count=6209 3874 2557 2335 2079
shrinkage=0.005


Tree=84
num_leaves=6
num_cat=0
split_feature=5 3 20 5 119
split_gain=189.601 78.4208 42.8539 31.577 19.1297
threshold=1.5000000000000002 2.5000000000000004 1.5000000000000002 1.0000000180025095e-35 1.0000000180025095e-35
decision_type=2 2 2 2 2
left_child=1 4 -2 -3 -1
right_child=2 3 -4 -5 -6
leaf_value=-0.0023414424789955503 -0.0027637641585183093 0.0034127599632555652 0.0026175089602311508 0.00054857070352496947 0.00030708085834234424
leaf_count=367 2173 1554 162 569 1384
internal_value=0 0.273936 -0.472157 0.533576 -0.0472686
internal_count=6209 3874 2335 2123 1751
shrinkage=0.005


Tree=85
num_leaves=6
num_cat=0
split_feature=3 4 3 4 4
split_gain=86.9913 56.0764 27.1286 22.9628 15.2253
threshold=6.5000000000000009 4.5000000000000009 1.5000000000000002 2.5000000000000004 6.5000000000000009
decision_type=2 2 2 2 2
left_child=2 -2 -1 -4 -5
right_child=1 -3 3 4 -6
leaf_value=-0.0015409233852691363 0.0036329910614758959 -0.0010938529937475094 0.00087596366683878645 -0.001459700083044054 0.0019343369827844979
leaf_count=2167 921 361 1480 1122 158
internal_value=0 0.463466 -0.133131 0.000767936 -0.20354
internal_count=6209 1282 4927 2760 1280
shrinkage=0.005


Tree=86
num_leaves=6
num_cat=0
split_feature=3 0 119 50 2
split_gain=86.5489 25.0941 19.1718 15.2782 12.547
threshold=6.5000000000000009 21.500000000000004 1.0000000180025095e-35 1.0000000180025095e-35 12.500000000000002
decision_type=2 2 2 2 2
left_child=1 -1 -3 -4 -2
right_child=4 2 3 -5 -6
leaf_value=0.00085656000701860708 0.0029981729675290923 -0.0024181037977581837 -0.00074907837930714974 0.0040332050067305161 0.00062645395837161114
leaf_count=934 899 846 3099 68 363
internal_value=0 -0.13074 -0.202965 -0.126463 0.467782
internal_count=6209 4947 4013 3167 1262
shrinkage=0.005


Tree=87
num_leaves=6
num_cat=0
split_feature=5 3 20 5 0
split_gain=188.812 59.1662 50.7519 47.7411 23.4034
threshold=1.0000000180025095e-35 4.5000000000000009 1.5000000000000002 2.5000000000000004 21.500000000000004
decision_type=2 2 2 2 2
left_child=1 4 3 -2 -1
right_child=2 -3 -4 -5 -6
leaf_value=0.0030109170621770865 -0.0008380024484553884 0.003819224384521759 0.002887795492265947 -0.0034452537289381747 0.00014240456251848565
leaf_count=376 1602 997 224 1522 1488
internal_value=0 0.368993 -0.348274 -0.419247 0.148627
internal_count=6209 2861 3348 3124 1864
shrinkage=0.005


Tree=88
num_leaves=6
num_cat=0
split_feature=5 3 5 4 2
split_gain=186.233 61.6964 44.719 17.1679 15.6317
threshold=1.0000000180025095e-35 2.5000000000000004 2.5000000000000004 6.5000000000000009 4.5000000000000009
decision_type=2 2 2 2 2
left_child=1 -1 -2 -4 -5
right_child=2 -3 3 4 -6
leaf_value=9.91149461010429e-05 -0.00058528455899344652 0.0031375152195676271 -0.0034154273943851716 0.0048275258237357897 -0.0018235600697067544
leaf_count=1263 1742 1578 1432 49 145
internal_value=0 0.363666 -0.349026 -0.602351 -0
internal_count=6209 2841 3368 1626 194
shrinkage=0.005


Tree=89
num_leaves=6
num_cat=0
split_feature=5 3 20 0 5
split_gain=191.986 68.2009 55.4771 40.4044 33.0312
threshold=1.0000000180025095e-35 7.5000000000000009 1.5000000000000002 22.500000000000004 2.5000000000000004
decision_type=2 2 2 2 2
left_child=1 3 4 -1 -2
right_child=2 -3 -4 -5 -6
leaf_value=0.0030644074613672256 -0.0010164870320096332 0.0052562110270947008 0.0030011036455016224 0.00020342347687534015 -0.0032008619116874427
leaf_count=775 1605 510 238 1562 1519
internal_value=0 0.386187 -0.337387 0.234092 -0.41371
internal_count=6209 2847 3362 2337 3124
shrinkage=0.005


Tree=90
num_leaves=6
num_cat=0
split_feature=3 20 4 0 19
split_gain=93.9505 47.4976 34.0949 24.0714 19.2721
threshold=6.5000000000000009 1.5000000000000002 4.5000000000000009 21.500000000000004 1.5000000000000002
decision_type=2 2 2 2 2
left_child=1 3 -2 -1 -5
right_child=2 -3 -4 4 -6
leaf_value=0.00058044110062479041 0.0034856101132529444 0.0034356978046552558 -0.00022194563120310151 -0.0015286372361107302 0.0010912960549612613
leaf_count=885 895 269 357 3482 321
internal_value=0 -0.137156 0.487912 -0.187234 -0.259921
internal_count=6209 4957 1252 4688 3803
shrinkage=0.005


Tree=91
num_leaves=6
num_cat=0
split_feature=12 0 50 19 19
split_gain=34.3654 19.806 13.0426 11.8426 11.3647
threshold=1.0000000180025095e-35 21.500000000000004 1.0000000180025095e-35 3.5000000000000004 1.5000000000000002
decision_type=2 2 2 2 2
left_child=2 -2 3 -1 -3
right_child=1 4 -4 -5 -6
leaf_value=0.00071318796887407179 0.00098042125306307504 -0.0011640805723947009 0.0055254797161551671 0.0057448314413301657 0.001041068979979982
leaf_count=2374 682 2772 63 49 269
internal_value=0 -0.118732 0.19465 0.166916 -0.191788
internal_count=6209 3723 2486 2423 3041
shrinkage=0.005


Tree=92
num_leaves=6
num_cat=0
split_feature=5 20 5 2 2
split_gain=179.893 46.4928 40.6049 34.2361 39.3493
threshold=1.0000000180025095e-35 1.5000000000000002 2.5000000000000004 2.5000000000000004 21.500000000000004
decision_type=2 2 2 2 2
left_child=3 2 -2 -1 -5
right_child=1 -3 -4 4 -6
leaf_value=0.00038178025814946575 -0.00087751479523501155 0.0026751709410202185 -0.003300844606841625 0.0031779255090959775 -0.0020063211394978605
leaf_count=1120 1613 231 1485 1600 160
internal_value=0 -0.335757 -0.405378 0.364219 0.539263
internal_count=6209 3329 3098 2880 1760
shrinkage=0.005


Tree=93
num_leaves=6
num_cat=0
split_feature=5 3 20 2 5
split_gain=185.464 54.0525 28.9746 23.7295 23.1489
threshold=1.5000000000000002 1.5000000000000002 1.5000000000000002 31.500000000000004 1.0000000180025095e-35
decision_type=2 2 2 2 2
left_child=1 -1 -2 4 -3
right_child=2 3 -4 -5 -6
leaf_value=-0.00025103174263185003 -0.0025657682211426831 0.003072161505162862 0.0018634745743638132 -0.0025332834655631864 0.00074385436617305093
leaf_count=1295 2181 1845 161 95 632
internal_value=0 0.291343 -0.446801 0.460063 0.4994
internal_count=6209 3867 2342 2572 2477
shrinkage=0.005


Tree=94
num_leaves=6
num_cat=0
split_feature=5 3 20 119 0
split_gain=156.682 70.7039 41.8833 20.1828 18.3263
threshold=1.5000000000000002 6.5000000000000009 1.0000000180025095e-35 1.0000000180025095e-35 21.500000000000004
decision_type=2 2 2 2 2
left_child=1 3 -2 4 -1
right_child=2 -3 -4 -5 -6
leaf_value=0.0036292905267353804 -0.003277334364836806 0.0036867970792871896 -0.00021775916096835102 0.00078639890708092036 -0.0020162072214535069
leaf_count=63 1566 845 737 2480 518
internal_value=0 0.223365 -0.457862 0.0755569 -0.267852
internal_count=6209 3906 2303 3061 581
shrinkage=0.005


Tree=95
num_leaves=6
num_cat=0
split_feature=3 4 119 0 4
split_gain=86.1681 57.4244 24.7474 23.5815 16.9369
threshold=4.5000000000000009 3.5000000000000004 1.0000000180025095e-35 21.500000000000004 5.5000000000000009
decision_type=2 2 2 2 2
left_child=2 -2 3 -1 -5
right_child=1 -3 -4 4 -6
leaf_value=0.0027327128793604928 0.0030553172991688109 -0.00042776593017337396 -0.00037436603047662269 -0.0034783243969518478 0.0023218609506805953
leaf_count=78 1310 788 3300 680 53
internal_value=0 0.353638 -0.156532 -0.483399 -0.603913
internal_count=6209 2098 4111 811 733
shrinkage=0.005


Tree=96
num_leaves=6
num_cat=0
split_feature=5 3 20 17 5
split_gain=169.096 77.7493 49.3494 43.2571 41.8585
threshold=1.0000000180025095e-35 4.5000000000000009 1.0000000180025095e-35 1.0000000180025095e-35 2.5000000000000004
decision_type=2 2 2 2 2
left_child=1 -1 4 -4 -2
right_child=2 -3 3 -5 -6
leaf_value=0.00048052260872052672 -0.0011767504186503579 0.0040038463334537561 -0.0012188264332906001 0.0032502997262050214 -0.0040606350385262195
leaf_count=1855 1195 991 751 329 1088
internal_value=0 0.348291 -0.331138 0.0287372 -0.506949
internal_count=6209 2846 3363 1080 2283
shrinkage=0.005


Tree=97
num_leaves=6
num_cat=0
split_feature=5 3 20 119 5
split_gain=181.645 61.7829 28.8376 25.1349 19.9061
threshold=1.5000000000000002 4.5000000000000009 1.5000000000000002 1.0000000180025095e-35 2.5000000000000004
decision_type=2 2 2 2 2
left_child=1 3 4 -1 -2
right_child=2 -3 -4 -5 -6
leaf_value=-0.0016325503229400076 -0.0010124808484995016 0.0030987801505240054 0.0017877161528800801 0.00091495028524034977 -0.0033128665568174266
leaf_count=510 634 1344 160 2040 1521
internal_value=0 0.271036 -0.461836 0.0799317 -0.528738
internal_count=6209 3894 2315 2550 2155
shrinkage=0.005


Tree=98
num_leaves=6
num_cat=0
split_feature=5 20 0 50 119
split_gain=171.439 41.4256 26.2408 26.8807 22.932
threshold=1.5000000000000002 1.0000000180025095e-35 22.500000000000004 1.0000000180025095e-35 1.0000000180025095e-35
decision_type=2 2 2 2 2
left_child=2 -2 -1 4 -4
right_child=1 -3 3 -5 -6
leaf_value=0.0026655640593938085 -0.0030892526628965794 -7.5533745902963401e-05 -0.0011281857090718027 0.0063917474983595634 0.0011908833646844829
leaf_count=1289 1556 760 577 85 1942
internal_value=0 -0.417978 0.293942 0.172195 0.130705
internal_count=6209 2316 3893 2604 2519
shrinkage=0.005


Tree=99
num_leaves=6
num_cat=0
split_feature=20 4 50 4 6
split_gain=30.2879 32.1399 19.9857 14.7897 13.5152
threshold=1.5000000000000002 2.5000000000000004 1.0000000180025095e-35 6.5000000000000009 36.500000000000007
decision_type=2 2 2 2 2
left_child=1 2 4 -3 -1
right_child=-2 3 -4 -5 -6
leaf_value=0.00050068297732223618 0.0027164264674738349 -0.0013949638213863705 0.0054823748188089763 0.00093739018801180477 -0.0023163917509582328
leaf_count=2944 389 2272 78 332 194
internal_value=0 -0.0434744 0.0920574 -0.217393 0.06406
internal_count=6209 5820 3216 2604 3138
shrinkage=0.005


Tree=100
num_leaves=6
num_cat=0
split_feature=5 20 17 5 119
split_gain=158.112 45.0021 42.6505 25.0394 19.5326
threshold=1.5000000000000002 1.0000000180025095e-35 1.0000000180025095e-35 1.0000000180025095e-35 1.0000000180025095e-35
decision_type=2 2 2 2 2
left_child=3 -2 -3 4 -1
right_child=1 2 -4 -5 -6
leaf_value=8.7747537023390897e-05 -0.0031171740709695643 -0.0016445489511200792 0.0036556003775144036 0 0.0022728337779270146
leaf_count=559 1546 534 231 1065 2274
internal_value=0 -0.413543 -0 0.270739 0.370539
internal_count=6209 2311 765 3898 2833
shrinkage=0.005


Tree=101
num_leaves=6
num_cat=0
split_feature=5 3 5 0 4
split_gain=198.705 61.0247 51.5818 40.1531 26.0511
threshold=1.0000000180025095e-35 4.5000000000000009 2.5000000000000004 21.500000000000004 6.5000000000000009
decision_type=2 2 2 2 2
left_child=1 3 -2 -1 -4
right_child=2 -3 4 -5 -6
leaf_value=0.0037427113430227288 -0.00045302557895582997 0.0039739551226893217 -0.0035559755723469852 3.4323491596116953e-05 0.00039590150925056071
leaf_count=385 1746 1004 1439 1435 200
internal_value=0 0.397934 -0.338929 0.169165 -0.610449
internal_count=6209 2824 3385 1820 1639
shrinkage=0.005


Tree=102
num_leaves=6
num_cat=0
split_feature=5 3 20 17 3
split_gain=165.37 71.251 40.7019 25.28 22.5004
threshold=1.5000000000000002 1.5000000000000002 1.0000000180025095e-35 1.0000000180025095e-35 6.5000000000000009
decision_type=2 2 2 2 2
left_child=1 -1 -2 -4 -3
right_child=2 4 3 -5 -6
leaf_value=-0.00078406831299546219 -0.0033104720106278776 0.0014351968222480341 -0.0016223193322669478 0.0025252198133884074 0.0035181353739008755
leaf_count=1322 1593 1732 510 226 826
internal_value=0 0.229766 -0.469256 -0.0588126 0.425661
internal_count=6209 3880 2329 736 2558
shrinkage=0.005


Tree=103
num_leaves=6
num_cat=0
split_feature=3 0 3 2 6
split_gain=65.668 35.6001 16.2729 22.4606 11.4744
threshold=4.5000000000000009 21.500000000000004 9.5000000000000018 12.500000000000002 21.500000000000004
decision_type=2 2 2 2 2
left_child=1 -1 4 -4 -2
right_child=2 -3 3 -5 -6
leaf_value=0.0011227757536987691 0.0011433830151848575 -0.0013347527670933296 0.0043745391677863085 0.00052029672484607114 -0.0013084299463988918
leaf_count=763 1165 3361 370 304 246
internal_value=0 -0.173682 0.27315 0.537696 0.141463
internal_count=6209 4124 2085 674 1411
shrinkage=0.005


Tree=104
num_leaves=6
num_cat=0
split_feature=5 3 5 3 6
split_gain=160.579 64.5699 22.0913 19.5241 15.6795
threshold=1.5000000000000002 1.5000000000000002 1.0000000180025095e-35 4.5000000000000009 8.5000000000000018
decision_type=2 2 2 2 2
left_child=1 -1 3 -3 -2
right_child=4 2 -4 -5 -6
leaf_value=-0.00044899530333580162 -0.0031466813985664222 0.001761563856760847 0.00067715209163562084 0.0038829591660322045 -0.0012936628530162912
leaf_count=1281 881 928 666 1009 1444
internal_value=0 0.287062 0.468724 0.578499 -0.402041
internal_count=6209 3884 2603 1937 2325
shrinkage=0.005


Tree=105
num_leaves=6
num_cat=0
split_feature=5 3 20 5 6
split_gain=172.536 57.2839 51.1231 37.3283 25.4998
threshold=1.0000000180025095e-35 2.5000000000000004 1.5000000000000002 2.5000000000000004 22.500000000000004
decision_type=2 2 2 2 2
left_child=1 -1 3 -2 -3
right_child=2 4 -4 -5 -6
leaf_value=8.8350816768316683e-05 -0.00096385917314373325 0.0034258543132265999 0.0026736381383197835 -0.0032911802999039436 -0.00091850193657616879
leaf_count=1270 1610 1428 251 1505 145
internal_value=0 0.347627 -0.338855 -0.414609 0.602466
internal_count=6209 2843 3366 3115 1573
shrinkage=0.005


Tree=106
num_leaves=6
num_cat=0
split_feature=5 50 5 4 5
split_gain=177.917 34.5772 27.7595 18.9757 17.263
threshold=1.5000000000000002 1.0000000180025095e-35 1.0000000180025095e-35 6.5000000000000009 2.5000000000000004
decision_type=2 2 2 2 2
left_child=1 2 -1 4 -2
right_child=3 -3 -4 -5 -6
leaf_value=0.0015961261136564287 -0.0012590537965994732 0.0072861981756977322 -0.00036098305554801085 0.00024523895349415987 -0.0034209292678405796
leaf_count=2761 655 92 1035 252 1414
internal_value=0 0.245112 0.212768 -0.480887 -0.548708
internal_count=6209 3888 3796 2321 2069
shrinkage=0.005


Tree=107
num_leaves=6
num_cat=0
split_feature=20 19 2 119 17
split_gain=31.3352 29.3509 19.9729 16.3381 11.6309
threshold=1.5000000000000002 2.5000000000000004 3.5000000000000004 1.0000000180025095e-35 1.0000000180025095e-35
decision_type=2 2 2 2 2
left_child=1 2 3 -1 -4
right_child=-2 -3 4 -5 -6
leaf_value=-0.0025384433099478148 0.0028331162985563529 0.0032147387810762596 0.00092772153361340222 -0.00054509227299997631 -0.00043544774177207876
leaf_count=583 380 253 1443 2282 1268
internal_value=0 -0.0363811 -0.0688368 -0.191765 0.0566795
internal_count=6209 5829 5576 2865 2711
shrinkage=0.005


Tree=108
num_leaves=6
num_cat=0
split_feature=3 4 20 3 4
split_gain=81.089 31.2148 28.0597 21.1332 26.6265
threshold=6.5000000000000009 3.5000000000000004 1.5000000000000002 1.0000000180025095e-35 2.5000000000000004
decision_type=2 2 2 2 2
left_child=2 -2 3 -1 -5
right_child=1 -3 -4 4 -6
leaf_value=-0.0019354576774768461 0.0035491130312982535 0.00012541346553642533 0.0026006513493284128 0.00048690869971410397 -0.0013467549677612773
leaf_count=1289 778 462 265 1813 1602
internal_value=0 0.464606 -0.118937 -0.15748 -0.0704243
internal_count=6209 1240 4969 4704 3415
shrinkage=0.005


Tree=109
num_leaves=6
num_cat=0
split_feature=12 2 4 4 17
split_gain=27.9913 14.2531 19.3091 13.0467 11.4539
threshold=1.0000000180025095e-35 6.5000000000000009 6.5000000000000009 3.5000000000000004 1.5000000000000002
decision_type=2 2 2 2 2
left_child=-1 2 4 -3 -2
right_child=1 3 -4 -5 -6
leaf_value=0.00084412871062847672 -0.0012694120644370366 0.0015520007353898532 0.0036177181951376697 -0.0010070479357097207 0.0018071272994812813
leaf_count=2482 2613 542 92 348 132
internal_value=0 -0.114971 -0.188892 0.11043 -0.222051
internal_count=6209 3727 2837 890 2745
shrinkage=0.005


Tree=110
num_leaves=6
num_cat=0
split_feature=3 20 0 4 19
split_gain=58.7695 33.2008 31.3051 27.6182 20.6878
threshold=7.5000000000000009 1.5000000000000002 21.500000000000004 3.5000000000000004 1.5000000000000002
decision_type=2 2 2 2 2
left_child=1 2 -1 -2 -4
right_child=3 -3 4 -5 -6
leaf_value=0.0010335822646227334 0.0034969759725473732 0.0029659392432380724 -0.0012861314406891783 -0 0.0013711056179967749
leaf_count=941 645 276 3636 374 337
internal_value=0 -0.0877141 -0.128616 0.448279 -0.21048
internal_count=6209 5190 4914 1019 3973
shrinkage=0.005


Tree=111
num_leaves=6
num_cat=0
split_feature=5 20 2 17 2
split_gain=160.851 35.8681 33.2178 32.0252 28.1087
threshold=1.5000000000000002 1.0000000180025095e-35 2.5000000000000004 1.0000000180025095e-35 24.500000000000004
decision_type=2 2 2 2 2
left_child=2 -2 -1 -3 -4
right_child=1 3 4 -5 -6
leaf_value=-2.2924341530817817e-05 -0.0032081695868753229 -0.0017453649171250355 0.0022454021041439995 0.0029886732760210223 -0.0016871402676496556
leaf_count=1481 1553 551 2216 209 199
internal_value=0 -0.453947 0.237212 -0.0770083 0.382794
internal_count=6209 2313 3896 760 2415
shrinkage=0.005


Tree=112
num_leaves=6
num_cat=0
split_feature=5 20 0 17 50
split_gain=168.155 39.3366 32.669 28.712 21.6028
threshold=1.5000000000000002 1.0000000180025095e-35 22.500000000000004 1.0000000180025095e-35 1.0000000180025095e-35
decision_type=2 2 2 2 2
left_child=2 -2 -1 -3 -4
right_child=1 3 4 -5 -6
leaf_value=0.0025691198897338945 -0.0032612840827594626 -0.0017418159517750931 0.00037650981794165079 0.0025689300273159851 0.0056625929994708179
leaf_count=1272 1581 520 2515 241 80
internal_value=0 -0.458573 0.246267 -0.064025 0.111714
internal_count=6209 2342 3867 761 2595
shrinkage=0.005


Tree=113
num_leaves=6
num_cat=0
split_feature=5 20 17 119 42
split_gain=150.434 36.3635 29.8787 25.5508 22.4165
threshold=1.5000000000000002 1.0000000180025095e-35 1.0000000180025095e-35 1.0000000180025095e-35 1.0000000180025095e-35
decision_type=2 2 2 2 2
left_child=3 -2 -3 4 -1
right_child=1 2 -4 -5 -6
leaf_value=-0.0009626491846338657 -0.0031496844333737607 -0.0016059920981044023 0.0030568997507007829 0.0015271836166104338 0.0084149244775521999
leaf_count=706 1561 539 200 3180 23
internal_value=0 -0.443359 -0.0567817 0.226233 -0.116791
internal_count=6209 2300 739 3909 729
shrinkage=0.005


Tree=114
num_leaves=6
num_cat=0
split_feature=5 20 17 119 2
split_gain=152.813 42.4009 28.5231 27.5395 27.7432
threshold=1.5000000000000002 1.0000000180025095e-35 1.0000000180025095e-35 1.0000000180025095e-35 25.500000000000004
decision_type=2 2 2 2 2
left_child=3 -2 -3 -1 -5
right_child=1 2 -4 4 -6
leaf_value=-0.00029810215259733685 -0.0029369579507998985 -0.00123512408467024 0.0031774377092037443 0.0020799590486466069 -0.0023116853948860496
leaf_count=758 1572 532 221 2975 151
internal_value=0 -0.386 0.0130878 0.287213 0.371779
internal_count=6209 2325 753 3884 3126
shrinkage=0.005


Tree=115
num_leaves=6
num_cat=0
split_feature=2 4 4 0 119
split_gain=31.1785 53.3926 35.1812 23.9328 21.7516
threshold=4.5000000000000009 3.5000000000000004 5.5000000000000009 21.500000000000004 1.0000000180025095e-35
decision_type=2 2 2 2 2
left_child=2 -2 3 -1 -5
right_child=1 -3 -4 4 -6
leaf_value=0.0010043283618589747 0.0020382963350438973 -0.00093169710038173384 0.0035984378602436601 -0.0029940275892478508 -0.00072194532109914921
leaf_count=614 1670 1029 203 612 2081
internal_value=0 0.18522 -0.110126 -0.163007 -0.249214
internal_count=6209 2699 3510 3307 2693
shrinkage=0.005


Tree=116
num_leaves=6
num_cat=0
split_feature=5 3 20 3 4
split_gain=144.631 64.2906 34.7286 23.6901 15.2575
threshold=1.5000000000000002 6.5000000000000009 1.5000000000000002 1.5000000000000002 6.5000000000000009
decision_type=2 2 2 2 2
left_child=1 3 4 -1 -2
right_child=2 -3 -4 -5 -6
leaf_value=-0.0004850199389545202 -0.0027037250738829416 0.0037157192040840428 0.0023769598842995595 0.0013407555559600962 7.7908245146450774e-05
leaf_count=1315 1930 842 168 1719 235
internal_value=0 0.252858 -0.401876 0.110671 -0.477431
internal_count=6209 3876 2333 3034 2165
shrinkage=0.005


Tree=117
num_leaves=6
num_cat=0
split_feature=5 3 20 119 5
split_gain=154.519 57.0352 33.5992 22.3192 20.3814
threshold=1.5000000000000002 3.5000000000000004 1.5000000000000002 1.0000000180025095e-35 1.0000000180025095e-35
decision_type=2 2 2 2 2
left_child=1 3 -2 -1 -3
right_child=2 4 -4 -5 -6
leaf_value=-0.0019984806567751572 -0.0026454518848771881 0.0031700736312933937 0.0021816708613498913 0.00055382039236041359 0.00055759187938618927
leaf_count=460 2134 1245 157 1766 447
internal_value=0 0.223482 -0.456046 0.00399592 0.500995
internal_count=6209 3918 2291 2226 1692
shrinkage=0.005


Tree=118
num_leaves=6
num_cat=0
split_feature=3 4 0 20 119
split_gain=60.6052 55.554 32.5049 23.6487 18.6063
threshold=4.5000000000000009 3.5000000000000004 21.500000000000004 1.5000000000000002 1.0000000180025095e-35
decision_type=2 2 2 2 2
left_child=2 -2 -1 4 -4
right_child=1 -3 3 -5 -6
leaf_value=0.0011536580909312529 0.0027172676832711755 -0.00068946848103390926 -0.0029930107451280269 0.0022414779964500934 -0.00098856396465167237
leaf_count=765 1268 825 670 190 2491
internal_value=0 0.280012 -0.14932 -0.239087 -0.283983
internal_count=6209 2093 4116 3351 3161
shrinkage=0.005


Tree=119
num_leaves=6
num_cat=0
split_feature=5 3 20 5 2
split_gain=157.479 56.399 43.5796 39.8908 19.5158
threshold=2.5000000000000004 3.5000000000000004 1.0000000180025095e-35 1.0000000180025095e-35 26.500000000000004
decision_type=2 2 2 2 2
left_child=1 -1 -2 4 -3
right_child=2 3 -4 -5 -6
leaf_value=-2.796341856703531e-05 -0.0040338385349924207 0.0036275913860590939 -0.00031613103104085829 0.00021618781290089488 -0.0017439580033432004
leaf_count=2629 1117 1181 529 686 67
internal_value=0 0.191023 -0.564148 0.452058 0.663966
internal_count=6209 4563 1646 1934 1248
shrinkage=0.005


Tree=120
num_leaves=6
num_cat=0
split_feature=3 4 0 20 2
split_gain=65.7581 41.8835 30.9573 24.8584 16.7658
threshold=6.5000000000000009 3.5000000000000004 21.500000000000004 1.5000000000000002 12.500000000000002
decision_type=2 2 2 2 2
left_child=2 4 -1 -4 -2
right_child=1 -3 3 -5 -6
leaf_value=0.00093561726034753674 0.0042405533148874878 -0.00050103276656599286 -0.0013278070547166252 0.002035944019519099 0.00072475632295761986
leaf_count=971 573 471 3744 238 212
internal_value=0 0.383162 -0.140053 -0.222371 0.666228
internal_count=6209 1256 4953 3982 785
shrinkage=0.005


Tree=121
num_leaves=6
num_cat=0
split_feature=3 20 4 119 8
split_gain=89.751 41.9138 29.3782 27.2845 17.858
threshold=6.5000000000000009 1.5000000000000002 3.5000000000000004 1.0000000180025095e-35 1.0000000180025095e-35
decision_type=2 2 2 2 2
left_child=1 3 -2 -1 -5
right_child=2 -3 -4 4 -6
leaf_value=-0.0025992452575880863 0.0035647786001891065 0.0031431390603281757 0.00028022692668875146 -0.0012537112703085716 0.00016971042172365342
leaf_count=868 782 274 481 1891 1913
internal_value=0 -0.136037 0.473476 -0.184084 -0.106772
internal_count=6209 4946 1263 4672 3804
shrinkage=0.005


Tree=122
num_leaves=6
num_cat=0
split_feature=3 20 0 4 4
split_gain=65.5588 36.2614 26.2191 23.6898 20.5733
threshold=6.5000000000000009 1.5000000000000002 21.500000000000004 3.5000000000000004 6.5000000000000009
decision_type=2 2 2 2 2
left_child=1 2 -1 -2 -4
right_child=3 -3 4 -5 -6
leaf_value=0.00077230115023541935 0.0030859515953288444 0.0030583399322735814 -0.0013502156435963864 0.00014787296735744196 0.0022982380157900036
leaf_count=909 800 265 3580 484 171
internal_value=0 -0.113096 -0.157334 0.405228 -0.235376
internal_count=6209 4925 4660 1284 3751
shrinkage=0.005


Tree=123
num_leaves=6
num_cat=0
split_feature=0 50 20 2 4
split_gain=29.8878 29.5443 25.5063 19.1746 26.8786
threshold=21.500000000000004 1.0000000180025095e-35 1.5000000000000002 4.5000000000000009 3.5000000000000004
decision_type=2 2 2 2 2
left_child=-1 2 3 -2 -5
right_child=1 -3 -4 4 -6
leaf_value=0.001340289075022023 -0.0013735848664580867 0.004446754084534414 0.002139923014957806 0.00099704967363267293 -0.0015392650321562659
leaf_count=1216 2688 121 324 1112 748
internal_value=0 -0.0921513 -0.118709 -0.160428 0
internal_count=6209 4993 4872 4548 1860
shrinkage=0.005


Tree=124
num_leaves=6
num_cat=0
split_feature=5 3 20 17 2
split_gain=179.009 52.0068 29.2241 30.8346 21.3123
threshold=1.5000000000000002 1.5000000000000002 1.0000000180025095e-35 1.0000000180025095e-35 31.500000000000004
decision_type=2 2 2 2 2
left_child=1 -1 -2 -4 -3
right_child=2 4 3 -5 -6
leaf_value=-0.0003340760106734092 -0.0031795455552686897 0.0023382201011875794 -0.002027975275734051 0.0025406734315808355 -0.0023780544781548223
leaf_count=1332 1575 2457 525 223 97
internal_value=0 0.261907 -0.467709 -0.121158 0.42965
internal_count=6209 3886 2323 748 2554
shrinkage=0.005


Tree=125
num_leaves=6
num_cat=0
split_feature=3 4 17 3 4
split_gain=77.5281 37.2436 23.7968 20.3118 19.6791
threshold=6.5000000000000009 3.5000000000000004 1.5000000000000002 1.5000000000000002 2.5000000000000004
decision_type=2 2 2 2 2
left_child=2 -2 3 -1 -5
right_child=1 -3 -4 4 -6
leaf_value=-0.0015660727232237725 0.0035651328864042932 -0 0.0022944737334590817 0.00064427202262914529 -0.0011715888327214687
leaf_count=2036 791 504 284 1409 1185
internal_value=0 0.443197 -0.118594 -0.15537 -0.0321391
internal_count=6209 1295 4914 4630 2594
shrinkage=0.005


Tree=126
num_leaves=6
num_cat=0
split_feature=5 3 5 20 2
split_gain=168.408 58.2457 27.577 27.3358 25.6362
threshold=1.5000000000000002 1.5000000000000002 1.0000000180025095e-35 1.5000000000000002 30.500000000000004
decision_type=2 2 2 2 2
left_child=1 -1 4 -2 -3
right_child=3 2 -4 -5 -6
leaf_value=-0.00054900603157175595 -0.0026444647802357367 0.0029568853122146788 0.00023362738957298238 0.0016868681399387639 -0.002773569802774517
leaf_count=1309 2186 1825 653 158 78
internal_value=0 0.242449 0.418758 -0.464054 0.541425
internal_count=6209 3865 2556 2344 1903
shrinkage=0.005


Tree=127
num_leaves=6
num_cat=0
split_feature=5 3 20 5 119
split_gain=134.197 52.8241 43.7922 38.5907 21.6582
threshold=1.0000000180025095e-35 4.5000000000000009 1.5000000000000002 2.5000000000000004 1.0000000180025095e-35
decision_type=2 2 2 2 2
left_child=1 4 3 -2 -1
right_child=2 -3 -4 -5 -6
leaf_value=-0.0016353894168635197 -0.00059219180254077651 0.003540088986505307 0.002900900085548273 -0.0029572075309221907 0.0011811253165582218
leaf_count=353 1659 1000 228 1471 1498
internal_value=0 0.337202 -0.26899 -0.336595 0.12739
internal_count=6209 2851 3358 3130 1851
shrinkage=0.005


Tree=128
num_leaves=6
num_cat=0
split_feature=5 3 20 17 119
split_gain=162.339 70.6752 27.6831 33.5838 21.0613
threshold=1.5000000000000002 4.5000000000000009 1.0000000180025095e-35 1.0000000180025095e-35 1.0000000180025095e-35
decision_type=2 2 2 2 2
left_child=1 4 -2 -4 -1
right_child=2 -3 3 -5 -6
leaf_value=-0.0016692093402686599 -0.0030742846261544656 0.0030819351235022953 -0.0020543033465081611 0.0026462199651943684 0.00068253588615079202
leaf_count=506 1556 1357 537 230 2023
internal_value=0 0.247725 -0.447622 -0.116314 0.0415531
internal_count=6209 3886 2323 767 2529
shrinkage=0.005


Tree=129
num_leaves=6
num_cat=0
split_feature=5 3 20 17 20
split_gain=152.635 59.5353 27.8976 29.7413 22.3732
threshold=1.5000000000000002 2.5000000000000004 1.0000000180025095e-35 1.0000000180025095e-35 1.0000000180025095e-35
decision_type=2 2 2 2 2
left_child=1 4 -2 -4 -1
right_child=2 -3 3 -5 -6
leaf_value=-0.00094795975187324483 -0.0030236594459010602 0.0023044711037306853 -0.0019115677112985958 0.0026583030829293664 0.0016029792551216584
leaf_count=1283 1575 2125 503 216 507
internal_value=0 0.234186 -0.442219 -0.0945721 -0.0418294
internal_count=6209 3915 2294 719 1790
shrinkage=0.005


Tree=130
num_leaves=6
num_cat=0
split_feature=3 20 4 4 4
split_gain=64.8238 41.5842 32.2078 19.292 18.8367
threshold=6.5000000000000009 1.5000000000000002 3.5000000000000004 6.5000000000000009 2.5000000000000004
decision_type=2 2 2 2 2
left_child=1 3 -2 4 -1
right_child=2 -3 -4 -5 -6
leaf_value=-0.00034172097844032627 0.0032870227926883968 0.0032624392451653518 -0.00010669676466849439 0.0021640230333107866 -0.0017413320043164003
leaf_count=2602 800 278 451 229 1849
internal_value=0 -0.10391 0.416647 -0.152179 -0.183317
internal_count=6209 4958 1251 4680 4451
shrinkage=0.005


Tree=131
num_leaves=6
num_cat=0
split_feature=0 119 42 19 12
split_gain=30.2622 21.2111 14.7566 10.7744 8.81849
threshold=21.500000000000004 1.0000000180025095e-35 1.0000000180025095e-35 3.5000000000000004 1.0000000180025095e-35
decision_type=2 2 2 2 2
left_child=-1 2 -2 4 -3
right_child=1 3 -4 -5 -6
leaf_value=0.0013788113248956783 -0.0019951341170047145 0.00040296228605098274 0.0052215478452306476 0.0039882137225330239 -0.00060858350137862882
leaf_count=1210 1012 1682 26 65 2214
internal_value=0 -0.0875441 -0.353569 -0.0170294 -0.0328042
internal_count=6209 4999 1038 3961 3896
shrinkage=0.005


Tree=132
num_leaves=6
num_cat=0
split_feature=3 20 0 119 18
split_gain=54.5749 30.6502 30.0518 19.5474 9.3536
threshold=6.5000000000000009 1.5000000000000002 21.500000000000004 1.0000000180025095e-35 1.0000000180025095e-35
decision_type=2 2 2 2 2
left_child=1 2 -1 4 -4
right_child=-2 -3 3 -5 -6
leaf_value=0.0008127654363390953 0.0016989032551727287 0.0026586921344775197 -0.0029473863603093273 -0.00089961094873832696 0.0056464903420289925
leaf_count=883 1262 263 773 3019 9
internal_value=0 -0.136504 -0.176997 -0.258673 -0.557745
internal_count=6209 4947 4684 3801 782
shrinkage=0.005


Tree=133
num_leaves=6
num_cat=0
split_feature=5 20 5 17 50
split_gain=167.833 36.4974 24.9814 21.7943 18.2116
threshold=1.5000000000000002 1.0000000180025095e-35 1.0000000180025095e-35 1.0000000180025095e-35 1.0000000180025095e-35
decision_type=2 2 2 2 2
left_child=2 -2 4 -3 -1
right_child=1 3 -4 -5 -6
leaf_value=0.0016219610748557578 -0.0031921756424523775 -0.0015081181981996023 -8.190544941450547e-05 0.0023830865569287401 0.0067868435900040611
leaf_count=2784 1578 536 1024 215 72
internal_value=0 -0.450456 0.2566 -0.0667438 0.354124
internal_count=6209 2329 3880 751 2856
shrinkage=0.005


Tree=134
num_leaves=6
num_cat=0
split_feature=5 119 20 0 5
split_gain=143.921 24.5762 23.6198 21.9932 21.4302
threshold=1.5000000000000002 1.0000000180025095e-35 1.5000000000000002 21.500000000000004 1.0000000180025095e-35
decision_type=2 2 2 2 2
left_child=1 3 -2 -1 -3
right_child=2 4 -4 -5 -6
leaf_value=0.0042497842419129388 -0.0024345315301927913 0.0020547034946844802 0.001580588966154468 -0.0012010621244657354 0.0001221453774160918
leaf_count=83 2171 2285 159 652 859
internal_value=0 0.229492 -0.425572 -0.105362 0.308099
internal_count=6209 3879 2330 735 3144
shrinkage=0.005


Tree=135
num_leaves=6
num_cat=0
split_feature=3 4 20 4 119
split_gain=63.9592 33.8839 32.3739 15.8511 12.9925
threshold=4.5000000000000009 3.5000000000000004 1.5000000000000002 5.5000000000000009 1.0000000180025095e-35
decision_type=2 2 2 2 2
left_child=2 -2 3 4 -1
right_child=1 -3 -4 -5 -6
leaf_value=-0.0024401575446846226 0.0025245861986319409 -0.00015075435202015433 0.003070095280183119 0.0012585837322476121 -0.00081848885281997114
leaf_count=715 1259 814 216 323 2882
internal_value=0 0.29892 -0.143255 -0.18856 -0.229077
internal_count=6209 2073 4136 3920 3597
shrinkage=0.005


Tree=136
num_leaves=6
num_cat=0
split_feature=5 3 20 17 20
split_gain=131.742 61.1526 29.4657 21.0903 28.9255
threshold=1.5000000000000002 1.5000000000000002 1.5000000000000002 1.0000000180025095e-35 1.0000000180025095e-35
decision_type=2 2 2 2 2
left_child=1 -1 -2 4 -3
right_child=2 3 -4 -5 -6
leaf_value=-0.00068366830872743339 -0.0024043983864691781 0.0038348666442735908 0.0021902014977758224 0.00086746525418418237 0.00081753966698429065
leaf_count=1354 2138 964 151 1071 531
internal_value=0 0.216675 -0.412853 0.398703 0.556337
internal_count=6209 3920 2289 2566 1495
shrinkage=0.005


Tree=137
num_leaves=6
num_cat=0
split_feature=5 0 5 4 2
split_gain=140.226 27.6897 27.519 25.4428 24.2366
threshold=1.0000000180025095e-35 21.500000000000004 2.5000000000000004 6.5000000000000009 4.5000000000000009
decision_type=2 2 2 2 2
left_child=1 -1 -2 -4 -3
right_child=2 4 3 -5 -6
leaf_value=0.0035536821690706623 -0.00060620970616445918 0.00010272996482377389 -0.0030688910353405137 0.00084455094951107861 0.0022400380070483929
leaf_count=583 1725 1309 1405 203 984
internal_value=0 0.314569 -0.305359 -0.509571 0.209571
internal_count=6209 2876 3333 1608 2293
shrinkage=0.005


Tree=138
num_leaves=6
num_cat=0
split_feature=3 4 0 119 20
split_gain=69.8666 35.6061 34.7066 29.2175 16.9976
threshold=6.5000000000000009 3.5000000000000004 21.500000000000004 1.0000000180025095e-35 1.5000000000000002
